{"config": {"n_num_features": 15, "n_cat_features": 9, "cat_cardinalities": [9, 485, 11, 1, 31, 7, 11, 20, 21], "embed_dim": 32, "n_layers": 3, "n_heads": 4, "dropout": 0.1}, "weights": {"cls_token": [[[-0.6416394114494324, -0.34397193789482117, -1.2312641143798828, 0.4362507164478302, -0.1779821515083313, 1.2782727479934692, -1.21336829662323, -0.2401212751865387, -0.870823085308075, 1.4883379936218262, -0.6298340559005737, 0.25437983870506287, -0.915047287940979, 0.12973903119564056, 0.4525546133518219, -0.00010869776451727375, -0.6158390045166016, 1.0813910961151123, -1.5207629203796387, -2.060748815536499, 0.8326239585876465, -0.46254023909568787, 0.10292356461286545, 0.02299363538622856, 0.43479248881340027, 0.07419348508119583, 0.40095221996307373, 1.2278460264205933, 0.48183226585388184, -0.7655033469200134, 1.857983112335205, -0.26351284980773926]]], "cat_embeds.0.weight": [[0.0, 0.0, 0.0, 0.0, 0.0, 0.0, 0.0, 0.0, 0.0, 0.0, 0.0, 0.0, 0.0, 0.0, 0.0, 0.0, 0.0, 0.0, 0.0, 0.0, 0.0, 0.0, 0.0, 0.0, 0.0, 0.0, 0.0, 0.0, 0.0, 0.0, 0.0, 0.0], [0.45735207200050354, 0.4947828948497772, -1.5425999164581299, 0.1384855955839157, -1.0410902500152588, 0.35824015736579895, 0.21661274135112762, -0.06476923823356628, -0.42552947998046875, -0.6009213924407959, -0.018664827570319176, -0.43064358830451965, -1.1163702011108398, 0.24534815549850464, -0.6297305822372437, 0.8255687355995178, 0.5370825529098511, 0.43203750252723694, 0.7313446402549744, 0.5167603492736816, -1.418242335319519, -0.3434273898601532, 2.0540783405303955, 1.421903371810913, -2.0998075008392334, 1.490564227104187, 0.6773933172225952, -0.018404260277748108, -0.6957918405532837, -1.4707674980163574, 0.35521063208580017, 1.7984979152679443], [-1.198222041130066, 1.1619901657104492, -0.33597469329833984, 1.4519565105438232, -0.6389229893684387, -1.292297124862671, 0.9992336630821228, -1.2874035835266113, -0.45979058742523193, -0.15052305161952972, -1.1684610843658447, -0.35356396436691284, -1.978090763092041, 0.26805374026298523, -0.19662582874298096, -0.08635116368532181, 1.1620653867721558, -0.43487659096717834, 0.8803126811981201, 1.362458348274231, 0.6346370577812195, 0.6749629378318787, -0.16520005464553833, -0.45868420600891113, -0.5728991031646729, -1.1091569662094116, 1.3634766340255737, -0.4439737796783447, 0.7432480454444885, -0.14699651300907135, 0.16349993646144867, -0.6172011494636536], [-0.26647889614105225, 0.8658939003944397, 0.3686440587043762, 1.127845287322998, -2.425386667251587, -0.2395167499780655, 0.9702329635620117, -0.4673798382282257, 0.06643564254045486, -0.16100075840950012, -0.4791869819164276, -1.1036468744277954, -1.6188838481903076, 0.4405396282672882, -0.09423880279064178, 1.7255269289016724, 0.9828921556472778, -1.6251919269561768, 0.39993786811828613, -1.0473167896270752, -0.2013292908668518, -0.33318570256233215, -0.5581653714179993, -0.6175304055213928, -0.9074919819831848, 0.13058117032051086, -1.144783616065979, 1.1404353380203247, -0.5255484580993652, -0.241522416472435, 0.4795481562614441, 0.28705349564552307], [2.50691819190979, -1.0654280185699463, -2.1200921535491943, -0.8504955768585205, 1.1290905475616455, -1.3903372287750244, -0.3018311560153961, -1.1890536546707153, -0.03258289769291878, 0.44532570242881775, -0.23624901473522186, 1.1524306535720825, 0.5244389176368713, 0.2609882056713104, 0.18039247393608093, -0.8607625365257263, -0.6905309557914734, 0.18254128098487854, 0.393349289894104, 0.6357998847961426, -0.8105695843696594, -1.2347804307937622, -1.4381144046783447, 0.017582397907972336, 1.0727163553237915, -1.2029732465744019, -1.4727100133895874, 0.06170037388801575, -0.7853814959526062, 1.3084431886672974, 0.4911709725856781, -1.9085534811019897], [0.37976062297821045, 0.8792614340782166, 0.5792118310928345, -1.491641640663147, -0.7922359108924866, -1.4900480508804321, 0.6185560822486877, 1.76091468334198, 1.012022614479065, -1.3901007175445557, -0.33380988240242004, 0.5576276183128357, 0.40664997696876526, -0.8434123396873474, 0.5424817800521851, -0.5580780506134033, -0.9315754175186157, 1.2186217308044434, 0.6826186776161194, -1.0324331521987915, 0.4808356463909149, 1.827441692352295, -0.18870510160923004, -0.8684836626052856, -1.1474305391311646, -1.7360659837722778, 0.05005883052945137, -0.6696571707725525, 0.3182375729084015, 0.0815746858716011, 0.004579902160912752, -0.9655566215515137], [-0.3989504873752594, -0.5285305976867676, 2.066044569015503, 0.7986962199211121, -0.4582687020301819, -0.40373894572257996, -1.4457085132598877, 0.16959743201732635, 0.5369759798049927, 1.6006056070327759, -1.9405533075332642, 1.368915319442749, 0.7325828075408936, 0.5243036150932312, 0.2710418701171875, -0.26352715492248535, 0.6519274115562439, 1.439280390739441, 0.7736469507217407, -0.3337155878543854, -0.00811540987342596, 1.894914984703064, 2.1880149841308594, 0.5204078555107117, -2.1289520263671875, -0.04760637879371643, -0.248200461268425, 0.2799980640411377, -0.7234606742858887, -1.0757611989974976, -0.5382415652275085, 0.7896542549133301], [0.09838514029979706, 0.02999255433678627, 3.1342217922210693, -0.8231361508369446, 1.5029531717300415, -2.0552077293395996, -0.08413741737604141, -0.049291886389255524, 0.4637448787689209, -0.3911932706832886, -1.7348425388336182, -0.7088235020637512, -1.240943193435669, 1.8510844707489014, -1.4431443214416504, -1.5751538276672363, -0.6968966126441956, 1.0790085792541504, 0.6924073696136475, 1.4107778072357178, 1.2023793458938599, -0.3167046010494232, 0.02816539816558361, -0.1395009458065033, -1.0852761268615723, 1.9398387670516968, 0.8805862069129944, 0.49614232778549194, 1.6541011333465576, 0.5072773694992065, 0.4653554856777191, -0.6366036534309387], [0.06420017778873444, 0.5985451936721802, -0.8376172184944153, 1.7952138185501099, -0.7928510904312134, 0.8503916263580322, -0.24149788916110992, -0.00395329250022769, 1.0072509050369263, -1.2065519094467163, 0.592422366142273, -1.649492621421814, 0.7400118112564087, -1.0622119903564453, -0.35452401638031006, -1.0448247194290161, -0.41924700140953064, -0.5094379186630249, 0.1405342072248459, 1.6299492120742798, -0.6291862726211548, -1.0421403646469116, -0.3985495865345001, 0.3912382125854492, -1.1957086324691772, 0.09430327266454697, 1.6376428604125977, -0.47959744930267334, -0.9169007539749146, -0.35587936639785767, -1.002802848815918, 0.7738074660301208], [-0.7248259782791138, -0.036469943821430206, -1.519326090812683, -0.08180715143680573, 1.037947654724121, 0.853962242603302, -0.21671347320079803, 0.09315546602010727, 0.3889165222644806, 0.26202961802482605, -0.7003520131111145, 2.6707937717437744, -1.0364667177200317, 0.7928838729858398, 0.1000061184167862, -1.5199638605117798, 0.7653036713600159, -0.6052556037902832, 1.8680216073989868, 1.0984326601028442, -0.3012399673461914, 1.6448783874511719, -0.16944874823093414, 0.4271405041217804, 0.2581649720668793, 0.1065252348780632, -1.264426350593567, 1.1461949348449707, -0.8953593373298645, -1.4455574750900269, 0.24701297283172607, 1.256519079208374]], "cat_embeds.1.weight": [[0.0, 0.0, 0.0, 0.0, 0.0, 0.0, 0.0, 0.0, 0.0, 0.0, 0.0, 0.0, 0.0, 0.0, 0.0, 0.0, 0.0, 0.0, 0.0, 0.0, 0.0, 0.0, 0.0, 0.0, 0.0, 0.0, 0.0, 0.0, 0.0, 0.0, 0.0, 0.0], [0.6361239552497864, 1.1995657682418823, -0.8701930642127991, 0.5065418481826782, -1.46512770652771, 0.13024981319904327, -0.6843117475509644, 0.6010990142822266, -0.6249354481697083, 1.1869969367980957, 1.3683639764785767, -2.450272798538208, 0.17070071399211884, 0.3276865482330322, 0.47056806087493896, 1.0731117725372314, -0.4585878849029541, -1.3003132343292236, 2.882584810256958, 0.9895321130752563, 0.2561643719673157, 1.2593861818313599, -0.019066598266363144, 0.16486744582653046, 0.18899771571159363, -1.4033151865005493, -0.07714059203863144, -0.126407191157341, -1.1116578578948975, 1.399564266204834, 0.24507805705070496, -0.5920663475990295], [0.47287604212760925, 1.3371011018753052, 0.64844810962677, 0.20351605117321014, 0.38122260570526123, 0.2355550080537796, 0.19880953431129456, 0.6049830317497253, -0.6155157685279846, -1.5253123044967651, 0.3683696389198303, -0.5138878226280212, -1.6975281238555908, 0.39089512825012207, 0.8457198143005371, 1.1483097076416016, 1.0819157361984253, -0.687252938747406, 0.2267196774482727, -1.2015719413757324, 0.9049341082572937, 0.7981860041618347, 1.2226369380950928, -1.4800843000411987, 0.6315239667892456, 1.5633881092071533, -0.34550997614860535, 0.9387644529342651, 2.1817004680633545, -0.5138634443283081, -0.07792848348617554, 0.43338093161582947], [0.431760311126709, -0.4030221402645111, -2.4238381385803223, 1.0365192890167236, -0.4779806435108185, -0.6910789608955383, 0.2617301642894745, -0.5162417888641357, 1.2381192445755005, 0.03697943687438965, -0.9662205576896667, -0.8343456387519836, -0.8257399201393127, -1.1541919708251953, 1.2099014520645142, -1.1964428424835205, 1.8155063390731812, 0.8768341541290283, 1.362734317779541, -1.2677768468856812, -0.7896314859390259, 0.28463467955589294, 0.5139650702476501, 1.2821295261383057, 2.0541982650756836, 1.7456281185150146, -1.3066719770431519, -1.2817307710647583, -0.13208559155464172, -3.0364365577697754, -0.9120917916297913, -0.14298120141029358], [-0.5021578073501587, -0.07580029964447021, -1.5853581428527832, -0.34020012617111206, -1.1774836778640747, -1.3253977298736572, 1.0052385330200195, -0.18839596211910248, -0.30592742562294006, -2.1976048946380615, 0.4311830699443817, 0.11503738909959793, -0.24506713449954987, 1.921399712562561, -0.8584292531013489, -0.2465822398662567, -1.173837661743164, -0.9495636224746704, 0.8083729147911072, -0.3234087824821472, 1.3121774196624756, 0.25033995509147644, 0.761254072189331, 0.30295613408088684, 2.090425968170166, -0.5330596566200256, 0.21783359348773956, 0.18212346732616425, -1.370653510093689, 0.9482729434967041, 0.9328032732009888, -1.1439071893692017], [-1.2439860105514526, -0.11436598002910614, -0.3985646367073059, -0.21723391115665436, 0.5752536654472351, -0.4153965413570404, 0.3194552958011627, -0.40258273482322693, -0.018103457987308502, -0.21631963551044464, -0.880968451499939, 0.6186094284057617, 0.5061302185058594, 0.6290037631988525, 1.1201512813568115, 0.0005303648067638278, -0.8524896502494812, -0.31407928466796875, -0.004275124054402113, 0.8728666305541992, 1.0320770740509033, 0.007714640349149704, 0.018954560160636902, 2.06404709815979, -0.6524139046669006, 0.5037630796432495, -0.5628830194473267, -0.6997187733650208, -0.5541946291923523, 0.14928166568279266, 0.7358826398849487, -0.11577843874692917], [0.2719053030014038, -1.5912601947784424, 1.4976576566696167, -0.8781866431236267, -0.9439708590507507, -0.5310259461402893, 1.0725678205490112, -1.757312297821045, -0.4340056777000427, 0.046401768922805786, 0.5707815885543823, -0.7758565545082092, 2.0140111446380615, 0.22730456292629242, -0.3460790514945984, 1.0003516674041748, -0.3631846606731415, -0.9677104949951172, 0.8506890535354614, -0.3425743877887726, 1.3772790431976318, 1.0435339212417603, 0.3962523639202118, -0.8724477887153625, -0.3574526607990265, 0.10410351306200027, -0.534182608127594, -1.179556965827942, 1.9853935241699219, 1.541893720626831, 1.7031118869781494, 1.0020400285720825], [0.19919584691524506, 0.27699968218803406, 0.3780882954597473, 1.0642343759536743, -0.5493906736373901, 2.450488805770874, 0.45720261335372925, 0.020635036751627922, -1.3499387502670288, 0.07916637510061264, -0.7210962772369385, -0.09423397481441498, -1.658020257949829, -0.31788235902786255, 1.0225059986114502, -1.141991376876831, -1.9116355180740356, 0.8593994975090027, -0.22674131393432617, 0.36202889680862427, -0.11958248168230057, 0.8696824908256531, 2.1011552810668945, -0.1112612709403038, -2.225447416305542, 1.0963780879974365, -1.534372091293335, -0.9808470010757446, -0.29070037603378296, -1.478234887123108, -1.9043288230895996, -1.0796791315078735], [0.015156719833612442, 0.4699629843235016, 0.2034258246421814, -0.2570360600948334, -0.8158878087997437, 1.1787065267562866, -0.4525425136089325, -0.1931932419538498, -0.3548729419708252, -0.0726357251405716, 0.5283091068267822, 0.34373125433921814, 0.2621852159500122, -0.19973044097423553, -0.04016389697790146, -0.7258425951004028, -0.9266525506973267, -0.5426618456840515, 0.1304754614830017, -1.3668853044509888, -0.09549986571073532, -0.3580970764160156, -0.6964371204376221, 1.6904948949813843, 0.26842793822288513, -1.364421010017395, 1.414561152458191, 1.0007675886154175, 0.3129097819328308, -1.0661325454711914, -1.6111119985580444, 0.9811047911643982], [1.4083244800567627, -0.612612783908844, -1.4326039552688599, 2.349322557449341, 0.2864772379398346, 0.5058066248893738, -1.195929765701294, -2.9128007888793945, 1.3174623250961304, -1.155524492263794, -0.25229158997535706, -1.8093440532684326, -1.2344211339950562, 0.6692235469818115, -1.7339013814926147, -1.472072958946228, 0.07984372973442078, 1.3330589532852173, -1.3898816108703613, 0.20148293673992157, -0.900029718875885, 0.4333399534225464, 0.4907709062099457, -1.0265299081802368, -1.6409623622894287, -0.09438876807689667, -0.6958774328231812, -2.0573370456695557, -0.06339239329099655, 1.2943867444992065, -0.26671692728996277, 0.8428828716278076], [0.432247132062912, 0.15049412846565247, -0.6632638573646545, 0.3275832533836365, 0.25055018067359924, -1.6400046348571777, 0.4527330696582794, -0.36449822783470154, 0.032991085201501846, 1.7198065519332886, -0.0015993121778592467, 1.5244090557098389, -0.6347976326942444, -0.3606969118118286, -1.199140191078186, -0.8113293647766113, -0.020256541669368744, 0.764101505279541, 0.9389752149581909, 1.7357983589172363, 0.1729680299758911, -0.2908504903316498, -1.1563178300857544, -1.421048879623413, 0.4352208077907562, 0.9334552884101868, 0.226008802652359, -1.7366740703582764, 0.03756757825613022, 0.9669700264930725, 1.1010075807571411, 0.2453068494796753], [0.9047253131866455, 0.13488946855068207, 2.906949758529663, 0.12231006473302841, -1.320562720298767, -0.616287112236023, 1.2115345001220703, 0.39708927273750305, -1.7701388597488403, 1.6607904434204102, 0.43011853098869324, -0.8637164235115051, -1.4711840152740479, 0.3809589743614197, -1.1022132635116577, 0.40336155891418457, -0.46306270360946655, 1.5497407913208008, -1.7187217473983765, -0.02669353038072586, 0.36292970180511475, -0.09460023790597916, 1.6443599462509155, -1.262362003326416, 0.07685137540102005, 2.0677285194396973, -0.05620606243610382, 0.107269287109375, -1.385494589805603, -0.27781644463539124, 0.3021654188632965, -0.5235141515731812], [-0.618763267993927, 0.520843505859375, -1.226832628250122, -0.30271244049072266, -0.28270411491394043, -1.4680386781692505, -0.35762110352516174, 0.11517134308815002, 1.8515723943710327, -0.6219826340675354, -0.21071051061153412, -2.321880340576172, -0.33722376823425293, 0.4237048625946045, 0.3805777430534363, -0.6555739641189575, -0.7054703235626221, -0.43437305092811584, 0.12024242430925369, 0.990928053855896, 2.6235644817352295, 0.619116485118866, -1.9227495193481445, -0.32828429341316223, 0.008716600015759468, -0.6309136152267456, 0.4044821560382843, -0.5001747608184814, -1.4827512502670288, 0.5962628126144409, 1.2101244926452637, -0.6838415861129761], [0.50392746925354, -0.8668286204338074, -0.6302826404571533, 1.0307374000549316, -0.3551833927631378, -0.45851585268974304, 0.4147721827030182, 0.19178716838359833, 1.2611669301986694, 0.8153491020202637, 0.2518257796764374, 0.9402150511741638, 0.6323075890541077, 0.15782517194747925, 0.35164618492126465, 0.45344051718711853, 0.13872027397155762, 0.2117982655763626, -1.92071533203125, -0.6781951189041138, -0.4658375382423401, -0.8501425981521606, -0.5889691114425659, 0.8212010264396667, -0.10987435281276703, 0.3106004297733307, -0.24957886338233948, 0.007603933569043875, 0.5458210110664368, -0.003016937058418989, -0.1370217204093933, -1.2547873258590698], [0.5590589046478271, 0.193317249417305, -0.19941453635692596, -0.8381147980690002, 1.641348958015442, -1.7366909980773926, 1.4879671335220337, 0.5500221848487854, 0.5055190324783325, -0.3954780697822571, -0.6896964311599731, 1.5739915370941162, 0.5681267380714417, -1.674569845199585, -1.1868524551391602, -0.6462252140045166, 0.5234388113021851, 0.20816412568092346, 0.3907791078090668, -0.41215693950653076, 1.1595135927200317, -0.5742025971412659, 1.1471123695373535, 1.1598091125488281, 1.2041568756103516, -2.2224268913269043, -1.1271504163742065, 0.40621045231819153, -0.29412564635276794, 0.8899627923965454, 0.5188599228858948, -0.38147515058517456], [0.8739038705825806, 0.48034557700157166, -0.039020836353302, 2.377610206604004, 0.013057702220976353, -0.34987059235572815, 0.8267244100570679, 0.06972640752792358, -0.405225932598114, -0.29590585827827454, -1.336686611175537, -0.9031631350517273, 0.29550498723983765, 0.4143877327442169, -0.7940739393234253, -0.6013858318328857, 0.4679037928581238, 0.332771360874176, 1.5178072452545166, 1.1811068058013916, -0.2705190181732178, -0.6635978817939758, 2.1739368438720703, 0.07883374392986298, -0.8323341012001038, -0.937501847743988, 0.719533383846283, -0.841866672039032, -0.31794169545173645, -1.2062098979949951, -0.08492507040500641, -0.3262825012207031], [0.32486116886138916, 0.4075703024864197, 0.27479037642478943, 0.6956052184104919, 0.10005970299243927, -0.12158708274364471, 0.13718633353710175, 0.07876206189393997, 1.5556414127349854, -0.6891272068023682, 0.2944236397743225, 0.2808759808540344, -0.5021759271621704, -0.9635266065597534, -0.12204321473836899, 0.09695794433355331, -2.5506818294525146, -0.0802915021777153, -0.3800497353076935, 0.06994684040546417, 1.5284924507141113, 0.9655848145484924, 0.15763354301452637, 0.313321053981781, 0.23897118866443634, -0.9637095332145691, -0.0900944396853447, 0.4927544891834259, -0.7783443927764893, -0.22209158539772034, 0.14058654010295868, -1.0996170043945312], [-1.2230298519134521, 1.356548547744751, 0.483198344707489, -0.7624239921569824, 0.33722221851348877, -0.668667197227478, -1.9297360181808472, 0.8443001508712769, 0.8020936846733093, -0.012345126830041409, -1.6830222606658936, -1.0610193014144897, 0.024677371606230736, 2.0351338386535645, -0.25380414724349976, 0.042078424245119095, 0.3331816792488098, 0.5111271739006042, -2.8493423461914062, -0.39953911304473877, -0.11243052780628204, -0.16730567812919617, 0.6512079834938049, -0.2957191467285156, -0.710424542427063, -1.0411262512207031, -0.1631058007478714, -0.7768905758857727, 0.0728098601102829, -0.3347156047821045, 1.5826977491378784, 0.12858977913856506], [0.3847760260105133, -2.361149787902832, -0.3070227801799774, -0.5533357858657837, 2.1826348304748535, 0.5809802412986755, -0.19797949492931366, 0.6269477009773254, -0.7129201889038086, -0.43550628423690796, 0.30728092789649963, -0.14847785234451294, -0.48952826857566833, 0.4972281754016876, 0.25305959582328796, 1.4445469379425049, 1.1355206966400146, -0.01524002943187952, 0.5238034725189209, 0.7274940013885498, 2.109691858291626, -1.5803828239440918, 2.0688729286193848, -0.5944311022758484, -1.348791480064392, 1.5318282842636108, -0.9835911393165588, 0.45976415276527405, 2.2737514972686768, -0.23053224384784698, 2.6037895679473877, -1.998400092124939], [-0.29581624269485474, 0.7235715985298157, 0.4523097574710846, -0.9793634414672852, 1.4646018743515015, 0.060379765927791595, -0.8329863548278809, -0.3299071490764618, -1.475559115409851, 0.5851328372955322, 0.5753872990608215, 0.011793549172580242, 1.6432100534439087, 0.15361250936985016, 0.19381083548069, -0.37637266516685486, -1.9662418365478516, -0.6902313232421875, -0.9408509731292725, 0.2569581866264343, 0.9016982913017273, -0.006928859744220972, 0.2752627730369568, 1.2946239709854126, -0.23798149824142456, 0.43911686539649963, -2.3285019397735596, -0.37401530146598816, -0.2514673173427582, -0.9591268301010132, 1.5655936002731323, 0.7168418765068054], [0.7893789410591125, -0.45151767134666443, -1.137083649635315, 0.6570031642913818, 0.7896197438240051, 0.41075366735458374, -0.2422923743724823, 2.4234161376953125, -0.2570374608039856, -0.17785945534706116, -0.45552387833595276, -1.9099926948547363, 0.9023907780647278, -1.2932178974151611, 2.463771343231201, 0.7590920925140381, -0.26197153329849243, 0.2565402388572693, -1.5750807523727417, -1.1320046186447144, -0.6166995167732239, -0.313596248626709, -0.10573205351829529, -1.038826584815979, -0.34333735704421997, -0.7177594304084778, -1.5276771783828735, -0.8419085144996643, 0.2155136615037918, 2.3401496410369873, -0.6194878220558167, 1.471055269241333], [0.7281349897384644, -1.2023441791534424, 1.6536335945129395, -0.19643622636795044, -0.47616103291511536, 3.22809100151062, 0.16057883203029633, -0.4239053726196289, 0.21528834104537964, 0.8639164566993713, -0.7239320874214172, 1.0505385398864746, 0.6446858644485474, 0.39053240418434143, 1.5850567817687988, 0.08953079581260681, 1.6421386003494263, 1.0469086170196533, 0.6715230941772461, 1.0645153522491455, -0.6672199964523315, -0.04007411003112793, -0.01113526988774538, -0.6157175302505493, 0.8395216464996338, 0.6171950697898865, 2.7707266807556152, -0.5612118244171143, 0.33373206853866577, 1.6408926248550415, -1.288478970527649, 2.1010937690734863], [-0.061036188155412674, -0.6154738068580627, 0.19788296520709991, 0.112003855407238, 0.6637700796127319, 0.8979740142822266, 0.12222376465797424, -0.23606020212173462, 1.0739328861236572, -1.3813775777816772, 1.0694795846939087, 0.9093345403671265, 1.0915206670761108, 0.6495968103408813, 0.3515115976333618, 0.2047281265258789, -0.6088193655014038, -0.20397117733955383, 0.22458352148532867, 0.23622094094753265, 0.07663808763027191, -1.679294466972351, -0.9809959530830383, 1.9444870948791504, -0.07666454464197159, -0.1127387285232544, -1.456618309020996, 0.5006627440452576, 0.00843044463545084, 0.8952898979187012, 1.0432664155960083, 0.46643540263175964], [-0.12437442690134048, -1.8113967180252075, -1.5698580741882324, -0.2495145946741104, -0.38380515575408936, -1.0495091676712036, 0.8385082483291626, -1.1981656551361084, 0.5412459969520569, 1.1872708797454834, 1.4077492952346802, -0.02453492023050785, 0.9790348410606384, -0.9627565145492554, 0.3274973928928375, -0.43374380469322205, -0.030855627730488777, 0.5897506475448608, 1.2120535373687744, -0.006026541348546743, 0.5164420008659363, -0.5421369075775146, -0.38776257634162903, 0.7963800430297852, -1.753548264503479, -1.3450566530227661, -0.5059876441955566, -0.6767430901527405, -0.7639322280883789, 0.40406742691993713, 1.2074472904205322, 1.2126935720443726], [-2.5057661533355713, -1.8501988649368286, -1.216957926750183, -0.42991697788238525, 0.8942633271217346, -2.295130968093872, -0.015117037110030651, 0.8847506046295166, -0.1844104826450348, -0.620017409324646, -0.22562874853610992, -1.784690260887146, -0.21504931151866913, -0.01814555749297142, 1.189194917678833, 0.20306804776191711, 0.18703767657279968, 0.7778775095939636, -0.07989483326673508, 2.517935037612915, -0.14149969816207886, -0.3741318881511688, -0.7326961755752563, 0.09235431253910065, -0.4982636570930481, -0.11382152140140533, 0.18562093377113342, 1.4229921102523804, -0.38908132910728455, -0.6358839869499207, -1.4062385559082031, -0.34909188747406006], [1.0596753358840942, 0.1146455705165863, -0.5477439165115356, -0.23502950370311737, -0.05104612931609154, 0.3243457078933716, -1.3648581504821777, 0.7341986298561096, -1.041556477546692, -0.18221837282180786, 0.26766955852508545, 0.904170572757721, 0.03392358496785164, 0.07901843637228012, -0.7308254837989807, 0.5998849272727966, 0.8211362957954407, -1.4056516885757446, -0.19713036715984344, 1.7120834589004517, 1.4909546375274658, -0.6487035155296326, -1.234046459197998, 0.2871555685997009, 0.172968327999115, -0.6681783199310303, 1.052146315574646, 1.9677128791809082, 0.7332664132118225, 0.8776481747627258, -0.16638459265232086, 1.3002266883850098], [0.500026285648346, -0.10393897444009781, 0.011772559024393559, -1.546888828277588, -0.8719783425331116, -1.0334054231643677, -0.14380058646202087, 1.2603187561035156, -1.1841561794281006, 1.1507388353347778, -0.006234290078282356, -2.14571475982666, -0.9132745862007141, -0.910511314868927, 0.7287017107009888, 0.21537451446056366, -0.2514612376689911, -0.4851038157939911, -1.2263736724853516, 0.04231424257159233, 1.210040807723999, -1.2444549798965454, 0.42835384607315063, -0.0348564088344574, 0.2693433165550232, 0.3900308609008789, 0.15857143700122833, 0.3325919210910797, 0.6122282147407532, -1.5015013217926025, -0.3447989225387573, 0.8845767974853516], [-0.23258866369724274, -0.7772126197814941, 0.07532846927642822, 1.0065077543258667, -0.33986279368400574, -0.6705483794212341, -0.08415196090936661, -0.41068071126937866, -1.3443869352340698, -0.32177630066871643, -0.5693554282188416, 1.215649962425232, 2.371765613555908, 0.8997635245323181, -0.7530512809753418, 0.5256519317626953, 0.03160861134529114, -3.087855577468872, -1.2276400327682495, -0.07571567595005035, -0.01951916515827179, -1.0772690773010254, 0.37482061982154846, 0.5720987915992737, -1.777117133140564, -0.38680049777030945, -1.1533079147338867, -0.13925093412399292, -0.6941885948181152, -1.7169071435928345, 0.8314267992973328, -2.473299026489258], [0.4717341661453247, 0.046538129448890686, -1.0940438508987427, -0.4405148923397064, -0.15865984559059143, -0.41373029351234436, -0.06714564561843872, 1.0683178901672363, 0.7943568229675293, -1.3566924333572388, -1.0048950910568237, 0.2797802984714508, -2.4166460037231445, 0.6749588251113892, -0.34901678562164307, -0.34682613611221313, -1.6371814012527466, 1.2919057607650757, -2.9889204502105713, -0.6767542362213135, 1.4459879398345947, -2.0324196815490723, 1.8208975791931152, -0.28029948472976685, -2.8636887073516846, 0.31662052869796753, -0.7827391624450684, 1.269408941268921, -0.6713292002677917, -0.8907672166824341, 0.39267775416374207, 0.11801836639642715], [-0.5764548778533936, -0.654113233089447, -0.44080600142478943, 0.011247504502534866, 0.7148508429527283, 0.4050986170768738, -0.5017350316047668, -0.1992020606994629, 2.375596761703491, -0.11329174041748047, -0.7077378630638123, 1.2022110223770142, -0.8799710869789124, -0.7104184031486511, 0.7459861040115356, -1.5275381803512573, 0.9536404609680176, -1.1950289011001587, 0.02106286771595478, -0.9164349436759949, 0.5990874767303467, -1.5119624137878418, -0.3552645444869995, -0.6221106648445129, 0.7583116292953491, 0.5917618870735168, 0.12729986011981964, -0.6245908737182617, -0.4448862373828888, 1.652721881866455, -0.2637636661529541, 0.7155659198760986], [1.3907618522644043, 1.1620255708694458, 0.6864734888076782, -0.9395235776901245, 0.9938040971755981, 0.9934175610542297, 0.6916588544845581, -2.7380876541137695, 0.27569982409477234, 0.8580373525619507, -0.16799648106098175, 1.7108207941055298, -0.7985748052597046, 0.8221991062164307, 0.807799756526947, 1.6483358144760132, 1.2336833477020264, 0.001796417054720223, -0.2440596967935562, 0.9847195744514465, -0.8056904077529907, -0.8988572359085083, -0.5509418845176697, -0.0900053158402443, -0.6722740530967712, 0.4499911367893219, -0.1950707733631134, 0.3722476363182068, 1.4533456563949585, -1.4226723909378052, 0.3496019244194031, -0.46207183599472046], [-0.9836472272872925, -0.04551031067967415, 0.08042201399803162, 0.5267898440361023, 2.422339677810669, 0.8607288002967834, -1.0067476034164429, -1.4273408651351929, -0.06578948348760605, 1.8600726127624512, 0.42335739731788635, 0.09656970947980881, 0.10412662476301193, -0.31665360927581787, -0.4139041304588318, -1.382405400276184, 0.7829399704933167, 1.74017333984375, 0.5792774558067322, -0.3080930709838867, 0.7569783329963684, -0.48391103744506836, 0.7337586283683777, 0.7976574897766113, 0.3692953884601593, -1.104374647140503, -0.23304831981658936, 0.6530229449272156, 0.5065540075302124, -0.5476115942001343, -1.4623810052871704, 0.202448770403862], [-0.17556162178516388, 0.8301732540130615, -0.270730584859848, 0.500092089176178, 0.8485231995582581, 0.030062105506658554, 0.20761527121067047, -0.47019073367118835, 1.0182276964187622, 1.0019336938858032, 0.39573603868484497, -0.8128041625022888, 0.4800088405609131, 0.8693684339523315, -0.4903261959552765, 1.5168694257736206, 2.23742938041687, -1.4275434017181396, -1.0058757066726685, 0.3571845591068268, 1.878261923789978, 0.15293672680854797, 1.6000336408615112, 0.5379025936126709, 0.24140579998493195, 0.3197075128555298, 1.3644801378250122, 0.24464218318462372, 0.7619460225105286, 0.24889124929904938, -0.3922119140625, -1.21695876121521], [0.498386412858963, -0.2589062452316284, 0.37351736426353455, -0.8727492690086365, -0.02714143879711628, 1.8397513628005981, 2.285696029663086, -0.6519504189491272, 0.8208892941474915, -3.3773152828216553, -1.15913987159729, -1.1163173913955688, -0.02046326920390129, -2.5891849994659424, 0.3496430814266205, 1.6122595071792603, 1.695386290550232, 0.38039708137512207, 0.1513480544090271, 1.0306271314620972, -0.019816594198346138, -0.2705461084842682, -1.0875197649002075, -0.7373523712158203, 0.49091336131095886, -0.44321396946907043, 0.7247047424316406, -2.134552240371704, 1.3517439365386963, -2.085416555404663, -0.6339722871780396, -0.9251267313957214], [-0.7487126588821411, 0.43684089183807373, 1.1258835792541504, -1.4744884967803955, 0.959837019443512, 1.3062524795532227, -0.15996065735816956, -0.21119508147239685, 0.8970412611961365, 1.5921399593353271, -2.006981134414673, -1.6895289421081543, 1.8475477695465088, 0.4015102684497833, -1.4047164916992188, -0.3092119097709656, 1.3014475107192993, 0.6593141555786133, 1.168812870979309, 0.3356417417526245, 0.6075310707092285, -0.025877254083752632, -0.7654373049736023, -1.6025208234786987, -0.04839152842760086, -0.3212648332118988, 1.5399634838104248, 1.878702998161316, 0.8944836854934692, -0.246697336435318, 0.9252732992172241, -0.8270952701568604], [1.6274313926696777, 0.24503344297409058, -0.31329429149627686, 1.5513200759887695, 0.863777756690979, 0.12659865617752075, 0.6257864236831665, -1.223525881767273, -0.5333805680274963, -0.4789838194847107, -1.0491305589675903, -1.2759510278701782, 0.8022760152816772, 0.19147850573062897, -0.9175627827644348, -1.4620552062988281, 0.5226938128471375, 1.0592013597488403, 0.596238911151886, -0.031158272176980972, -0.9802408218383789, -0.34470951557159424, 0.07081449031829834, 0.3235473334789276, 0.6709188222885132, 0.5450851917266846, -0.30014336109161377, -0.3535339832305908, 0.4958434998989105, 2.8473644256591797, 1.475580096244812, 1.606032371520996], [-0.42867588996887207, 1.2400367259979248, -0.7778735160827637, 0.6268577575683594, -1.3147523403167725, 1.0311617851257324, 1.8780678510665894, -0.519273042678833, 0.8641830682754517, -0.3253313899040222, -0.31585803627967834, 1.7172026634216309, 0.18151529133319855, 2.023467540740967, 0.4576999545097351, 0.0851847305893898, -1.4799705743789673, -0.3368850648403168, 1.287760615348816, -2.429107666015625, -0.9923721551895142, -1.8572163581848145, -0.8837304711341858, -0.13904203474521637, -0.03935817629098892, 0.7114991545677185, 0.010135459713637829, -0.3021886646747589, -0.6042059063911438, -0.524162232875824, -0.33857420086860657, -1.0451935529708862], [-0.550055742263794, 1.5429939031600952, 0.3460317850112915, -0.6758007407188416, 1.447923183441162, 1.4434822797775269, -1.283383846282959, -0.07170876860618591, 0.5167102813720703, -1.1537296772003174, -1.021850824356079, 0.3989989459514618, -0.3366987705230713, 0.3542754054069519, -1.5068268775939941, 1.2240885496139526, 1.2763705253601074, -0.9599682092666626, -1.6685261726379395, -0.36029189825057983, -1.6186314821243286, 0.30901363492012024, -1.826546311378479, -0.516046941280365, 1.4652231931686401, -1.101194143295288, 0.06995736807584763, 0.6071385145187378, -0.8938796520233154, -0.8305997848510742, -1.2905659675598145, -1.0980738401412964], [0.17146359384059906, 1.152235984802246, 0.31359586119651794, 1.3519177436828613, 0.6111482977867126, -0.04913313686847687, -0.23106037080287933, -0.22263742983341217, 0.8833302855491638, -0.5127894282341003, 0.008314233273267746, 1.0662652254104614, -0.6603795886039734, 1.1969958543777466, 1.4479784965515137, -0.22933781147003174, -0.18919755518436432, 0.35878726840019226, 0.6719812750816345, 2.3692479133605957, -0.3305048644542694, -0.31209510564804077, 0.13110077381134033, -1.1298327445983887, 1.6616424322128296, -0.17036868631839752, -0.7846751809120178, 1.0977181196212769, 1.3669095039367676, -0.8144985437393188, 0.11980614811182022, -0.21947184205055237], [0.06725495308637619, 1.0301082134246826, 1.0580215454101562, 0.46755099296569824, -1.1408705711364746, 0.40187618136405945, 1.0389219522476196, -0.8958914875984192, 1.5408909320831299, 1.7297567129135132, -0.9335095286369324, -0.7206646203994751, 0.10454810410737991, 0.024546852335333824, -1.0546586513519287, -0.2624586224555969, 0.8027900457382202, 0.691892147064209, 2.3998923301696777, -0.8713399767875671, 0.5828491449356079, -1.877616286277771, -1.51284658908844, -1.0521725416183472, -1.2918274402618408, 0.16265422105789185, -1.6768075227737427, -0.23880046606063843, -0.23215024173259735, -1.2860984802246094, 1.7188594341278076, 0.7331874966621399], [-0.6563249230384827, 0.1674654632806778, 0.03815174847841263, -0.230132594704628, 0.48795291781425476, -0.4314286708831787, -1.4047714471817017, -0.1671542376279831, -1.0146450996398926, 0.3526352643966675, 0.9322035312652588, -1.3213781118392944, 0.9123950004577637, 1.4302754402160645, 1.0001153945922852, 0.12816883623600006, 0.23120266199111938, 0.2818527817726135, 0.24805384874343872, -0.4056912362575531, 1.0708205699920654, -0.9664220809936523, 1.757781982421875, -1.9090327024459839, 1.6883244514465332, -0.8106788992881775, 1.6405410766601562, -0.07950352877378464, -1.471199870109558, 1.0226808786392212, 0.3534601032733917, 0.5036501288414001], [0.630122721195221, -0.420346736907959, -0.9570404887199402, -0.8806890249252319, -2.6778154373168945, -2.3025481700897217, 1.7378454208374023, -0.32576364278793335, -0.4100979268550873, 0.22528041899204254, 0.8635699152946472, 0.15879997611045837, 0.21511170268058777, -1.4532487392425537, -0.5825887322425842, 0.027965424582362175, -0.6660643815994263, -0.3770672678947449, -1.4552850723266602, -0.4783084988594055, 0.06558913737535477, 0.0774073377251625, -1.8675713539123535, 0.3699035942554474, 0.162869393825531, -1.7554346323013306, -2.234914779663086, -0.2176148146390915, -0.17519211769104004, -0.002293627243489027, 0.5698168277740479, 0.21462029218673706], [1.296918272972107, 1.0222091674804688, 1.2434983253479004, -1.1366268396377563, -2.595785140991211, -0.6696003675460815, 0.8876394629478455, -0.6661890745162964, -0.5212864279747009, 0.5945494174957275, 0.07561483234167099, -0.5540014505386353, 0.6010775566101074, 1.7519069910049438, -0.11066316068172455, -1.4033321142196655, 0.8067001104354858, -1.046741008758545, -0.9709656834602356, 0.9755305647850037, -0.4712074100971222, 0.24942684173583984, 0.3734731078147888, -1.2178630828857422, -2.425468683242798, -0.6766520738601685, 1.9080466032028198, 0.764068067073822, -0.4143927991390228, -0.6882345080375671, 0.4408104419708252, 0.036362048238515854], [-1.3616076707839966, -1.3987782001495361, 1.4787936210632324, 0.6031861901283264, -0.6415898203849792, -1.1714215278625488, 0.7141931653022766, 0.6238661408424377, 1.1099776029586792, -1.2829663753509521, -1.357822299003601, -0.32896414399147034, 0.6391211748123169, -0.8689049482345581, 0.27100712060928345, 1.0630931854248047, 0.3682432472705841, 0.6201844811439514, 1.4792307615280151, 0.07431604713201523, -0.6448714733123779, 0.34008142352104187, 0.829546332359314, 1.790800929069519, -0.13187876343727112, -0.126156747341156, 2.104978084564209, 2.4794888496398926, 0.42233434319496155, 1.0968818664550781, -0.8223321437835693, -1.1294159889221191], [-0.23931172490119934, -0.6049456596374512, -0.5287584066390991, 0.3721331059932709, -1.2948557138442993, -1.0599356889724731, -1.2432372570037842, -1.4293757677078247, -0.7816929817199707, -1.34340238571167, 0.13955970108509064, -1.9357284307479858, 0.18369072675704956, 0.6071867942810059, 0.16564849019050598, -0.5931342840194702, 0.899958610534668, 0.7177736163139343, -1.0139135122299194, -0.9961114525794983, 1.0675116777420044, 0.7666947245597839, 0.8679435849189758, -0.6778807640075684, -0.2983398139476776, 0.8507652878761292, 0.23600667715072632, -0.09586457163095474, -0.46201273798942566, 1.0281330347061157, 0.29164862632751465, 2.1407718658447266], [1.5244759321212769, 1.6933635473251343, 0.6534334421157837, 0.0376824326813221, -0.035657934844493866, 0.04367423802614212, 0.5534455180168152, 0.05416472628712654, 0.6066889762878418, 0.17793847620487213, 2.1389384269714355, 1.075044870376587, -0.927605152130127, -1.3792275190353394, 0.6314440965652466, -1.1060048341751099, 0.5284346342086792, -0.44142383337020874, 0.45453906059265137, -0.7924699187278748, -0.7700770497322083, -0.09204217791557312, -0.6753503680229187, 1.430199384689331, 0.15017199516296387, -1.4557268619537354, 0.2255859524011612, -1.0494410991668701, -0.2927018105983734, -0.03967702016234398, -0.33061206340789795, -0.33822137117385864], [1.0189334154129028, 1.5353070497512817, -0.2576448321342468, 0.24314668774604797, 0.652308464050293, -0.9938819408416748, -0.2123941332101822, -0.26181021332740784, -1.4847491979599, 1.5489997863769531, 0.49239856004714966, -0.6396229863166809, 1.649653434753418, -0.7452446222305298, 0.054634228348731995, 0.6540936231613159, 0.9567998051643372, 1.5418623685836792, -0.4560964107513428, -1.2312666177749634, -0.7408041954040527, -0.6147080659866333, -0.2667786777019501, -0.5218168497085571, 0.7604306936264038, 0.9165661334991455, -0.6502649188041687, 0.1610623598098755, -0.6410708427429199, -1.0461276769638062, -0.916215181350708, 0.46930205821990967], [0.4842163324356079, -0.14087198674678802, 1.2805792093276978, 0.2767471671104431, -0.7459500432014465, 1.0576006174087524, 1.0016127824783325, -2.409453868865967, 1.273884654045105, 0.8922802805900574, 1.0371983051300049, -0.9465691447257996, 0.9274430871009827, 0.3028354048728943, 0.12418857961893082, 0.0743677094578743, 0.22618550062179565, 1.272204041481018, 1.260577917098999, 0.4648761451244354, 1.0450310707092285, 0.5536365509033203, 0.24685433506965637, 0.13426782190799713, 1.5602644681930542, 1.224009394645691, 0.4324576258659363, 1.2922860383987427, 0.2002241164445877, 0.6022202968597412, 2.446500539779663, -1.4059290885925293], [0.06670639663934708, -0.9942414164543152, 0.2265976518392563, 0.3093504011631012, -1.4886200428009033, -2.0437941551208496, 1.8982105255126953, 0.20213109254837036, -0.17408910393714905, 0.8006489276885986, -1.011664628982544, 1.5317254066467285, 1.453725814819336, -0.7831102013587952, -0.7256743311882019, -1.0950971841812134, 0.6922083497047424, -0.26180317997932434, -0.7749112248420715, 0.7032727003097534, -0.9251243472099304, 2.1659770011901855, -0.6085126996040344, 0.5144509673118591, -1.3094581365585327, 1.5005570650100708, -0.1957428753376007, -0.888025164604187, 0.5378526449203491, -1.2105580568313599, 1.4775586128234863, 0.4891294240951538], [-1.0340787172317505, 0.38206249475479126, -2.115898847579956, 1.0333102941513062, 2.8358607292175293, -0.23035144805908203, -1.233180284500122, 0.42573702335357666, -0.002152327448129654, 1.2812930345535278, 0.18533800542354584, 0.4256179630756378, -1.0029546022415161, 0.2599470615386963, -1.1812934875488281, -0.6883512139320374, -1.4372111558914185, -0.24480117857456207, 0.8793220520019531, 0.37189239263534546, 0.8397930264472961, 0.021683622151613235, -1.217635154724121, 0.19870366156101227, -1.4088401794433594, 1.3156206607818604, -1.7919422388076782, 0.9309831261634827, 1.7771680355072021, -0.09222562611103058, 0.40013620257377625, 1.6472058296203613], [0.8919345140457153, -0.4455513060092926, -0.264247864484787, 1.5984598398208618, -1.2026629447937012, -0.32268282771110535, -0.08131048083305359, 0.5950347781181335, -0.23320232331752777, -0.8453488349914551, 0.4895074665546417, 0.029087796807289124, 0.7222893834114075, -0.27982521057128906, 0.08766229450702667, 0.9423942565917969, 1.4395909309387207, 0.5247422456741333, -0.6225506067276001, 0.5945360660552979, 0.47516363859176636, 0.06816968321800232, 1.013026237487793, 0.7874082922935486, 0.9057555794715881, 0.025838997215032578, -0.2659400701522827, -0.037555743008852005, 0.3821507394313812, 0.32468000054359436, -1.7962249517440796, 1.1710751056671143], [1.500026822090149, -1.800785779953003, -0.5473864078521729, -0.44685831665992737, 0.053244613111019135, -1.53714919090271, -0.41850996017456055, 1.2108014822006226, 0.12984393537044525, -0.7347476482391357, -0.6677535772323608, 0.9148804545402527, 0.8916668891906738, 0.06697706878185272, -0.967570960521698, -0.14632244408130646, 0.8831888437271118, 1.8705544471740723, 0.40367957949638367, -0.47211503982543945, -0.27185359597206116, -0.8520538210868835, -0.14827357232570648, 0.15745048224925995, -0.2279018759727478, -1.3605799674987793, 0.4312608540058136, -0.4880276024341583, 0.3423963785171509, 1.9169031381607056, 0.516991913318634, -1.2385413646697998], [-0.26446041464805603, 0.2660754323005676, -0.12678773701190948, -0.6106880903244019, -0.36971718072891235, 1.5366923809051514, -0.8326862454414368, 1.5362422466278076, 0.32795146107673645, 0.6776295304298401, -2.288841962814331, 0.25888413190841675, -0.08831964433193207, -0.23683251440525055, -0.11852176487445831, 0.04173777252435684, 0.013085240498185158, -0.603515625, 0.15169093012809753, -0.41713741421699524, 0.2325829714536667, -0.2749198377132416, -0.23133383691310883, -0.792782187461853, -0.765816867351532, 0.4260154068470001, -2.0588412284851074, -0.958595871925354, 0.9276661276817322, 2.1560139656066895, 0.1501295119524002, 1.0870052576065063], [0.27444225549697876, 0.2900490462779999, -0.6599106192588806, -0.8695804476737976, 0.934232234954834, 0.6244083642959595, 0.2848125398159027, -2.9433133602142334, 1.971874713897705, -0.2837877571582794, -1.0411382913589478, -1.5110328197479248, -2.0155110359191895, 0.21961572766304016, 1.575386881828308, 0.7919617891311646, 0.1526993066072464, 0.42428821325302124, -0.2804146409034729, -0.42219507694244385, 0.6528564691543579, 0.34223002195358276, -0.03751463443040848, -0.9678043723106384, -0.825950026512146, 0.48036596179008484, 0.8457551598548889, -1.1024510860443115, -0.9088382720947266, 0.025064613670110703, 0.45699232816696167, 0.10733478516340256], [-0.7019428014755249, 0.823677659034729, -2.086250066757202, 1.0886318683624268, 0.3285742402076721, 1.2552685737609863, 0.22958095371723175, 0.2351253181695938, -0.931601881980896, 0.08259672671556473, -1.8652538061141968, -0.2630344331264496, -0.5197180509567261, -0.6976997256278992, 2.0986618995666504, -0.11790923774242401, 1.669389247894287, -1.915295958518982, -0.07552491873502731, -0.07955632358789444, 0.5559563636779785, 0.42733457684516907, 0.7836740016937256, 0.4794417917728424, 0.9487254023551941, -0.6841376423835754, -0.7273436784744263, 0.1901509165763855, 1.109023928642273, 0.2560526430606842, 0.10928071290254593, 1.8456722497940063], [1.1907134056091309, -1.746855616569519, 0.11327659338712692, 0.1697024405002594, 1.6835486888885498, -0.7179319262504578, 0.2458028644323349, -1.176200032234192, -0.2754417359828949, -0.126095250248909, -0.006639531347900629, 0.16395674645900726, 0.15440893173217773, -0.33148908615112305, 0.5147753953933716, -1.6956825256347656, 1.748058795928955, -0.485191285610199, -0.2028133124113083, -0.7247068881988525, 0.6425954699516296, 0.22013410925865173, 1.1581429243087769, -1.1551718711853027, -0.6636121869087219, 2.0213053226470947, -0.578919529914856, 0.35587242245674133, -0.565723717212677, 1.6486533880233765, 0.6771074533462524, -0.49361488223075867], [-0.5120909214019775, 0.2543705403804779, -1.1568858623504639, 2.439885377883911, -0.015840554609894753, 0.22651101648807526, -0.9686177372932434, 0.3855467438697815, 0.7221352458000183, -0.7918757200241089, -0.7809519171714783, -0.008125987835228443, 0.42952826619148254, -0.8296148777008057, -0.055479053407907486, -0.07561763375997543, -0.3197527527809143, 2.902353048324585, 1.8138171434402466, -0.9784985184669495, -0.30286744236946106, 0.9354014992713928, 1.0890212059020996, 1.5907436609268188, -0.025229575112462044, 0.5610640645027161, 0.07611160725355148, -0.5999462008476257, -0.4970572590827942, 0.11306275427341461, 1.9094877243041992, -1.3835161924362183], [1.466647744178772, 0.3295069932937622, -0.7125228047370911, -0.6339014768600464, -0.57062828540802, -1.225765585899353, -0.11393872648477554, -0.834775447845459, -0.25433793663978577, -0.21663956344127655, -1.2579758167266846, -0.19010485708713531, 1.331496000289917, 0.04634084179997444, -0.2204078733921051, -1.4524091482162476, 0.7524096369743347, -0.10655076056718826, 0.8548425436019897, -1.0056902170181274, -0.5753176808357239, -0.6563876867294312, -0.4884350001811981, 0.06584516167640686, 0.8014664053916931, -0.6891565918922424, 0.02513347752392292, -0.687273383140564, -1.6152862310409546, -0.17420005798339844, -0.24033226072788239, 0.1637343466281891], [-1.8475810289382935, 1.0497416257858276, -2.106886863708496, 0.24242304265499115, -0.6444521546363831, -1.4276349544525146, 1.4558498859405518, 0.5423341989517212, -1.3333724737167358, -0.3298660218715668, -0.0061107235960662365, -0.42485564947128296, -0.4445214569568634, -1.3618299961090088, -0.07024990767240524, -0.6162607073783875, -0.7424142360687256, -0.19512566924095154, 0.6378660202026367, 0.347360759973526, -0.5003177523612976, 1.5868533849716187, -0.9428476691246033, -0.1891164630651474, 0.02650030329823494, 0.6861463785171509, 0.40650996565818787, -0.12327401340007782, -0.07292353361845016, -2.83559250831604, 1.6251988410949707, -0.9173112511634827], [0.003432395402342081, -0.7036547660827637, 0.6409940123558044, 0.6649565696716309, 0.38049787282943726, 2.2449991703033447, 0.28406956791877747, -1.0642735958099365, 1.3040229082107544, -0.46638286113739014, 0.7282325029373169, 0.1852930337190628, -1.1023905277252197, -0.41384488344192505, 1.3197131156921387, 0.9156488180160522, 0.14265981316566467, -0.45088326930999756, -0.8901808261871338, 1.5265116691589355, -1.5938677787780762, 0.43419554829597473, 0.6586031913757324, 1.125051498413086, -0.7875255942344666, -0.7265792489051819, 0.012943939305841923, -0.20579497516155243, -0.3790605962276459, 0.6479650735855103, -0.6076269149780273, -0.0070110163651406765], [0.059304311871528625, -0.672987163066864, 1.4687786102294922, 0.39486080408096313, -1.5229767560958862, -0.5479710698127747, -0.7285662889480591, 0.18369722366333008, 2.125877857208252, -0.10758807510137558, -1.158032774925232, -0.044928885996341705, -0.11724764108657837, -1.041129469871521, 1.1977901458740234, 0.402487188577652, -0.15299861133098602, -1.0700141191482544, -0.36862385272979736, 1.43038010597229, -0.807814359664917, 0.43572258949279785, 0.7977023720741272, -0.49241262674331665, -0.9569883942604065, -0.1699277013540268, 1.0507251024246216, 0.4106196165084839, 1.082440972328186, -0.44062677025794983, 0.5878746509552002, -0.8807957172393799], [0.5847977995872498, -1.467604160308838, 0.21655380725860596, -1.1619901657104492, -0.35760122537612915, -1.593860387802124, -0.23061557114124298, -0.11235319823026657, 1.209751844406128, 0.1756230890750885, -0.6706714034080505, -0.2588155269622803, 1.5978832244873047, 0.4118798077106476, -0.3153936266899109, 1.47615647315979, 0.8808013200759888, -0.2851490080356598, -0.8544919490814209, -1.3884570598602295, 0.8160014152526855, -1.7502801418304443, -0.23485693335533142, 0.017394019290804863, -1.3221986293792725, -1.6556107997894287, 0.8347487449645996, 1.138562798500061, 0.146762877702713, 1.5623738765716553, 1.6183562278747559, 2.2481844425201416], [1.1746571063995361, 1.0951083898544312, -0.9062391519546509, -1.0690513849258423, 0.20591691136360168, -0.00830819085240364, -0.2223810851573944, 0.2150314450263977, 0.41167405247688293, -0.17330431938171387, 0.4442217946052551, -1.0087900161743164, -0.07498384267091751, -1.4055646657943726, 0.23094648122787476, 0.5614156126976013, -0.9829885363578796, -1.3119890689849854, 1.7540892362594604, 2.471761465072632, -0.4405134320259094, 0.32538679242134094, -1.2932268381118774, -1.0611858367919922, -0.5203419327735901, 0.06527581065893173, 1.4297220706939697, -1.3813925981521606, -2.0817067623138428, -0.4956810474395752, 1.6803663969039917, -1.0884006023406982], [-2.1930477619171143, 1.8725037574768066, 0.5836046934127808, -0.5434553027153015, -1.6091229915618896, -1.3336526155471802, -0.16749300062656403, -1.2670336961746216, 1.0488808155059814, 0.23972901701927185, 0.2174108624458313, -0.6121533513069153, -0.08790856599807739, 0.31268781423568726, -1.1939976215362549, -0.21496620774269104, 1.8326507806777954, 0.6593843102455139, -0.7710658311843872, -0.9328005313873291, 0.7665178179740906, 0.8735474944114685, 1.194617509841919, 2.2255148887634277, -2.6509058475494385, -0.6326440572738647, -0.7617507576942444, -0.7695671916007996, -1.1033787727355957, 1.448220133781433, 0.4812893271446228, 0.6192988157272339], [-1.1971126794815063, -0.09349364042282104, -0.3248482048511505, -0.1731111854314804, 0.16010670363903046, 0.595016360282898, 1.1780226230621338, 0.9642695784568787, 1.2471017837524414, -0.02230740524828434, -2.0755507946014404, 0.1554427593946457, 0.029248151928186417, -0.00018948715296573937, -0.3953080475330353, 0.1941082626581192, -0.050782058387994766, 1.00602388381958, -0.2707737386226654, 1.5937199592590332, 0.009375610388815403, -0.5163785219192505, 0.41940218210220337, -0.3667166829109192, 1.561760425567627, -0.4642287790775299, 0.14446446299552917, -1.5913751125335693, -0.7090505361557007, 0.6410566568374634, 0.7771146297454834, 0.35825079679489136], [-1.9976223707199097, 0.23314522206783295, 0.7362741827964783, -0.7415058612823486, -0.16230835020542145, 0.5530173778533936, 0.5853489637374878, -0.8422741889953613, 0.3023155629634857, -0.050781577825546265, -0.6412979960441589, -2.0941600799560547, -1.4925119876861572, 0.8321352601051331, -0.8418028354644775, -0.21510067582130432, -0.05107399448752403, 1.6517188549041748, 0.11971774697303772, -1.726240634918213, -0.9406583309173584, 1.6094543933868408, 0.47918346524238586, 0.3386910855770111, 1.6533111333847046, -0.31981268525123596, 1.3350375890731812, 1.1825133562088013, 0.12221632897853851, -0.28804340958595276, 0.014193887822329998, -0.5051572322845459], [-1.4907341003417969, -0.25284481048583984, -0.7562247514724731, 0.680712103843689, 0.43396008014678955, 1.1059658527374268, -1.4097034931182861, -1.2189725637435913, 0.06942605972290039, 1.7347391843795776, 0.372551292181015, -0.18687649071216583, -0.019312486052513123, 0.3383343517780304, 0.6275244355201721, 1.096137523651123, 0.8401387929916382, -1.5601094961166382, -0.3533455729484558, -0.277699738740921, 0.9705556631088257, -0.004694053437560797, -0.4761354923248291, -2.0549957752227783, 0.9669790267944336, 1.7217605113983154, -0.8574451804161072, 0.49073758721351624, 0.9667866230010986, -0.432400643825531, 0.5551026463508606, -1.0685386657714844], [-1.287545084953308, 1.0313745737075806, 0.9421840906143188, -2.093827486038208, 0.049521103501319885, 0.8217434287071228, -0.8992894887924194, 0.3635721504688263, -0.9958322644233704, -0.6838238835334778, 0.5351062417030334, 0.8568254709243774, 0.46342524886131287, -0.155538409948349, 0.9107584953308105, 0.08751370757818222, -1.1223293542861938, 1.8546451330184937, 0.735393226146698, 0.16867558658123016, -0.16937877237796783, -0.045374173671007156, 0.22146165370941162, 1.9484399557113647, -0.02390414848923683, 1.6100598573684692, -0.331337034702301, -1.448838710784912, -2.675424337387085, -0.24198833107948303, -0.3609617054462433, 0.8530109524726868], [-0.7658209800720215, -0.5612875819206238, 1.3193883895874023, 0.055283207446336746, -0.5323679447174072, 0.04926469177007675, -0.853088915348053, -0.6807204484939575, 0.48911455273628235, -1.375944972038269, 1.222854495048523, 0.0985984206199646, -0.7960594296455383, -0.2601684331893921, 1.0192362070083618, 0.5438672304153442, 0.9854698181152344, 0.570301353931427, 1.5001174211502075, -0.3458983898162842, -0.17674261331558228, -0.9333223104476929, 0.7697119116783142, -0.8335009813308716, 0.22113998234272003, 0.7668527960777283, -0.0393732488155365, 1.4025686979293823, -0.060293376445770264, 0.4761512577533722, -0.5282710790634155, 0.9573264718055725], [0.9644019603729248, 2.0284650325775146, -0.22113360464572906, 0.8472093343734741, -0.051383379846811295, -0.3178093731403351, -2.608405113220215, 0.4763667583465576, -0.7091322541236877, -1.0824052095413208, -2.0693366527557373, -1.1719778776168823, -0.2251930832862854, 0.5080050230026245, -0.5582435727119446, 1.2581475973129272, 1.4140639305114746, -0.3919536769390106, -1.3727399110794067, 0.37035906314849854, 0.7259707450866699, -0.5420601963996887, -0.5225621461868286, -0.5741569995880127, -0.6782523393630981, -0.5013633966445923, -0.2933048903942108, -1.1559146642684937, 0.9417175650596619, 0.41021132469177246, 0.7182644009590149, 0.14006957411766052], [-0.20368480682373047, -0.2661963403224945, -0.10556463897228241, 0.5716862082481384, -0.026559343561530113, -1.055371880531311, -0.0006556655862368643, 0.5685255527496338, -0.6746152639389038, -0.7227832078933716, -0.9352018237113953, 1.6120706796646118, 0.10689455270767212, 1.4720200300216675, 0.7307275533676147, 0.18081307411193848, 1.7052273750305176, -1.2679829597473145, -0.14310748875141144, 0.051398370414972305, 0.43373486399650574, 0.9002259969711304, 0.4826500415802002, -0.12299173325300217, 0.15959997475147247, 1.0168181657791138, 0.6223210692405701, -0.04952920973300934, -0.03224954381585121, 0.07059681415557861, -0.03696570545434952, 1.5214225053787231], [-0.05377507582306862, 1.3923530578613281, -0.5679948329925537, -0.6891026496887207, 0.012026799842715263, -0.33564478158950806, 0.7859432697296143, -0.17775870859622955, -0.25003916025161743, -1.1466856002807617, -0.0854296088218689, 0.8031730055809021, 1.0565166473388672, 0.301532119512558, 0.35347309708595276, -0.060963813215494156, -1.4773964881896973, 1.2955193519592285, -1.2168033123016357, 0.37329015135765076, 0.10973648726940155, -0.36878445744514465, -1.7716213464736938, 1.0243079662322998, -0.3402559161186218, -0.5300080180168152, 0.09022798389196396, 0.5396955609321594, -1.6242506504058838, 0.8538300395011902, -0.7415955066680908, 0.2675108313560486], [-0.07622834295034409, -1.55771803855896, 0.4831793010234833, 1.4378597736358643, -0.6650733351707458, 0.0017035206547006965, 0.6426354646682739, -0.003922344651073217, 0.4271930456161499, -0.23675937950611115, -0.370574414730072, 1.6858384609222412, -1.1149753332138062, -0.06113823875784874, -0.6473565101623535, -0.7925670742988586, 0.9365586042404175, 0.46109017729759216, 0.9721171855926514, 1.3096284866333008, -0.0451623871922493, 1.3407944440841675, -1.059499740600586, 1.175147533416748, -0.02743205614387989, -0.39006227254867554, -1.11943519115448, -0.07864941656589508, -0.273472398519516, -0.7823539972305298, -1.2409766912460327, 0.40397757291793823], [1.299765944480896, 0.3635680675506592, -0.8211425542831421, -0.19509965181350708, -0.1466277837753296, 0.11035576462745667, 0.09785079956054688, 1.2080676555633545, 0.538013219833374, 1.9410033226013184, -1.2516872882843018, 0.11260095238685608, -1.6035740375518799, -0.2711823880672455, -0.8978107571601868, 1.5774332284927368, -1.0869896411895752, -0.7845609784126282, 0.07625995576381683, 0.3037742078304291, -0.49722445011138916, -2.0096535682678223, 2.0354936122894287, 0.9327065944671631, -1.6825194358825684, 1.1471792459487915, -0.07005209475755692, -0.1245979443192482, -0.13378791511058807, 2.277622938156128, -1.3400793075561523, -0.5633900165557861], [1.0556334257125854, 1.2374476194381714, -0.42175421118736267, 1.1139870882034302, 0.24710659682750702, 0.46818819642066956, 0.16034215688705444, 0.47463637590408325, -0.36952802538871765, 0.08060527592897415, -0.013368647545576096, 0.4588707983493805, 0.1307433694601059, -1.4294397830963135, 0.14103837311267853, -0.6932961940765381, -1.4609936475753784, 0.6244630813598633, -0.05537549778819084, 0.7691663503646851, -1.0600136518478394, 0.3342445194721222, -0.4990406930446625, -1.6416982412338257, -0.1966860145330429, -1.6274547576904297, 1.9719353914260864, 0.5051783919334412, 0.025680311024188995, 1.145584225654602, -0.4647693932056427, 0.7832695841789246], [0.8180385828018188, -0.40994369983673096, -0.8639477491378784, 2.7468628883361816, -0.48698747158050537, -1.980435848236084, -0.9584470391273499, -0.3540346622467041, -1.541170358657837, 0.8303067088127136, -0.03371640667319298, 2.6474597454071045, -0.7572804093360901, -1.7659955024719238, 1.4164042472839355, -0.7348814606666565, -0.21229435503482819, 0.0492095947265625, 0.8594486713409424, -1.136724591255188, 0.4373188018798828, 0.21041229367256165, 2.901517868041992, -0.7065029740333557, -1.668777346611023, 0.9430157542228699, -0.13354170322418213, -0.5679703950881958, -1.6360028982162476, -0.616875946521759, 0.7139213681221008, 0.9407198429107666], [1.8138034343719482, 1.5663845539093018, -1.8447096347808838, 0.8365014791488647, 0.7790674567222595, -0.46484798192977905, -0.581143319606781, -0.7177850008010864, 0.9643921256065369, -0.2920616865158081, -0.1811656504869461, -0.24807468056678772, -0.1033172458410263, 1.2980767488479614, -1.8205749988555908, 0.32132574915885925, 2.4458296298980713, -0.6090826392173767, -0.32305145263671875, 1.9022130966186523, -0.1984369307756424, 0.19618837535381317, 0.4189967215061188, 0.21932250261306763, 0.4998894929885864, -0.2992074191570282, 1.1226625442504883, 0.415983110666275, 0.28196150064468384, -0.5723878741264343, 0.724737823009491, -0.021276917308568954], [-0.024286119267344475, -0.31722185015678406, 2.280416488647461, 0.8838454484939575, 1.0167187452316284, 0.31180647015571594, 0.09113234281539917, -1.4489120244979858, 0.7136038541793823, -0.4134383201599121, 2.316112518310547, 0.9262740015983582, 0.6171488761901855, -1.9230414628982544, 1.1564841270446777, -1.1030693054199219, 0.1675931066274643, 0.004636034835129976, 1.4899075031280518, -0.3407301604747772, -0.6074666380882263, 0.7286186814308167, 0.6034338474273682, 0.27985820174217224, -1.3035951852798462, 0.6059945225715637, 0.35740217566490173, -0.8084414005279541, 0.322691947221756, 0.8996745944023132, 1.206782341003418, 0.028958594426512718], [-0.2624150514602661, 1.5470515489578247, -0.3885563313961029, -0.821763277053833, 0.8633794784545898, 0.17758898437023163, 0.4003942906856537, 0.7044064402580261, -1.0324989557266235, -0.7203584909439087, -1.5812588930130005, -0.6888137459754944, 0.9903895854949951, -0.8637414574623108, 0.06619776040315628, 0.7700843214988708, 0.3625432252883911, -0.7930757999420166, -0.3520277738571167, 0.45819616317749023, -0.18688352406024933, 1.775171160697937, -0.44149070978164673, 1.5661139488220215, 1.6008474826812744, 1.6813812255859375, -0.324105829000473, -2.181272268295288, 1.9492740631103516, 0.9571101069450378, -1.2480117082595825, 1.1412941217422485], [-0.9068992137908936, 2.072472333908081, 0.8860498070716858, 1.2282310724258423, 0.16055431962013245, -2.091677188873291, 1.1691372394561768, 1.1015127897262573, 0.6528218388557434, -0.16011708974838257, 2.2615809440612793, -1.3564294576644897, 0.2565748989582062, 0.43585091829299927, -0.7691221237182617, -0.27994564175605774, -1.5631088018417358, -0.21143010258674622, 1.3888872861862183, -2.3868424892425537, -0.5551478862762451, -0.7688832879066467, 0.2319858968257904, -0.07155453413724899, 0.11443383246660233, 0.8098964691162109, 0.7077813744544983, -0.36813807487487793, -0.905402660369873, -0.19050438702106476, 0.19975224137306213, -1.1342804431915283], [-1.2712498903274536, 1.196874737739563, 0.7081677913665771, -2.1215882301330566, 1.1002947092056274, -0.8132734298706055, 0.8687841296195984, -0.12843431532382965, -0.19563284516334534, 0.5389823913574219, 1.4591184854507446, 1.8206442594528198, -0.0416603609919548, -0.357287734746933, 0.1235876977443695, 1.2367156744003296, 0.7536424994468689, 0.505146861076355, 0.3109873831272125, -1.6267544031143188, -1.0160750150680542, 0.4427605867385864, -0.40950483083724976, -0.2287675440311432, -0.9971593618392944, 2.6082122325897217, 0.5611827373504639, -1.391765832901001, -0.5240151286125183, 0.016619525849819183, 0.7586525678634644, 0.9471650123596191], [1.5914335250854492, 1.3744899034500122, -0.5951734185218811, -0.12772247195243835, -0.10165248811244965, 0.533595860004425, 0.8643466830253601, 2.3993775844573975, 0.28570541739463806, -0.6019511222839355, 0.7713024616241455, -0.9534192681312561, -0.9317851662635803, 0.485578328371048, -0.08600639551877975, 0.32136088609695435, 0.5587557554244995, -2.4489245414733887, 0.42999231815338135, -0.9222479462623596, -0.19992101192474365, 1.7273989915847778, 0.39284971356391907, 0.6993424296379089, 1.1382641792297363, 0.8746871948242188, 0.20275238156318665, -0.9811302423477173, -0.9426759481430054, -0.6937674283981323, -0.6856816411018372, 0.8838691115379333], [-0.9161770939826965, -0.1011839359998703, 0.6105749011039734, -0.6061770915985107, 0.3935397267341614, 0.9947158098220825, -0.7128492593765259, -1.5667858123779297, -0.26137712597846985, 0.8055766820907593, -1.5485296249389648, -0.6765112280845642, -0.6460673213005066, 0.2312948852777481, -0.3446762263774872, 1.1383097171783447, 1.5007134675979614, 2.48138427734375, 0.5323548316955566, 0.4650091230869293, -0.2498248964548111, 0.2732362151145935, -0.29343709349632263, 0.865886390209198, 0.1905050128698349, -1.6553994417190552, 1.4057613611221313, -0.8409263491630554, -1.2823902368545532, 0.9502641558647156, -0.09424992650747299, 1.0371843576431274], [-0.5366030335426331, 0.48928266763687134, 1.004414439201355, -1.9441587924957275, -0.8216073513031006, -0.029674772173166275, 0.37623131275177, -1.2007553577423096, 1.106926679611206, -1.559865951538086, 0.07666583359241486, -0.6258447766304016, -0.08621572703123093, 1.274093508720398, 1.0405808687210083, -2.1210033893585205, -1.8080357313156128, 0.6695861220359802, 1.719463586807251, 0.8760967254638672, 0.30889806151390076, 0.6745118498802185, 2.260390281677246, 1.5749698877334595, -0.276385098695755, -0.4164855182170868, 1.5981767177581787, -0.9130213856697083, 0.9571452140808105, 1.133255958557129, -1.0334326028823853, 0.4538723826408386], [-0.14594115316867828, 1.0837371349334717, -1.3166179656982422, 1.3295761346817017, -1.6190831661224365, 0.19550833106040955, -1.8526630401611328, 1.2025833129882812, 0.3191061317920685, -1.8471755981445312, -2.1890289783477783, 0.42977896332740784, -0.2216932624578476, -0.6613534092903137, 2.218691825866699, 0.9725136160850525, 0.8016267418861389, -0.13006965816020966, 1.1843805313110352, -0.8827537298202515, -0.9453921318054199, 0.3972766697406769, -1.2380996942520142, 0.8111583590507507, 0.8510857820510864, -1.158721923828125, 1.5139546394348145, 1.0562230348587036, 0.8985158205032349, -0.3418671488761902, -1.2331993579864502, -1.6215177774429321], [-0.969713032245636, 0.40568801760673523, 1.8053371906280518, 2.148897409439087, 0.5337529182434082, 0.2948298156261444, -1.730672836303711, -1.7391899824142456, 1.281320571899414, 0.31992048025131226, 0.7131685614585876, -1.8379364013671875, -0.21478362381458282, -0.34847739338874817, 0.17701822519302368, -2.3534953594207764, -1.4741473197937012, -0.03068225085735321, -0.9278310537338257, -0.15400268137454987, 0.11458480358123779, -1.0766000747680664, 1.7749806642532349, 0.019646240398287773, -0.31327876448631287, -0.6262840032577515, -0.503710150718689, 0.23708303272724152, -0.43080782890319824, -0.6797547340393066, 1.5340265035629272, 0.454729825258255], [-0.44770243763923645, 1.1601589918136597, -1.0820226669311523, -1.5036299228668213, 0.2885884642601013, -2.7543141841888428, -1.0544012784957886, -1.2458528280258179, -0.4178263545036316, -0.9828076958656311, -0.4455799460411072, -0.33612963557243347, -1.2239062786102295, -0.34377315640449524, 0.6760541796684265, 0.558022677898407, 0.3879455626010895, 0.6986121535301208, -1.6373422145843506, 0.4856947064399719, 0.06116817519068718, -1.0630238056182861, -0.3990761339664459, 0.43574059009552, 1.6837918758392334, 0.49307313561439514, 0.9052374958992004, 1.3711155652999878, -0.4266064763069153, 1.2547247409820557, -1.536577820777893, 0.13443735241889954], [-0.1493421196937561, -1.4745527505874634, 0.6122531294822693, 0.047142304480075836, -0.6377099752426147, 0.4272283613681793, 0.086012102663517, -1.2481410503387451, 0.49809253215789795, 1.3606866598129272, -0.4620611071586609, -0.5794816017150879, -0.9997801184654236, 1.8122224807739258, -1.6337525844573975, -1.4170126914978027, 0.1858619749546051, 0.16964560747146606, 0.45805633068084717, 0.7042416930198669, 2.3842837810516357, -0.7274359464645386, -0.44231781363487244, 0.11475373059511185, -0.45705899596214294, -0.9064258933067322, 2.178422689437866, 0.7916005253791809, -0.09705798327922821, -0.44948428869247437, -0.21375350654125214, -0.9807459712028503], [-2.7442691326141357, -0.06292127072811127, -0.352061003446579, 0.9527131915092468, -0.3989246189594269, -0.6804788708686829, 0.6314625144004822, 1.148120403289795, -2.5222458839416504, -0.22463439404964447, -0.229103222489357, 0.6731982231140137, -2.1755919456481934, -0.3350085914134979, 0.5359914302825928, 0.9154049754142761, 0.5326240658760071, 0.499620258808136, -0.27410581707954407, 1.2078852653503418, -0.5930137634277344, -0.015553746372461319, 2.3378710746765137, 0.8082985877990723, -0.11967258900403976, 0.521123468875885, 1.931636095046997, 0.9838895201683044, -0.47141724824905396, 1.2546557188034058, 1.1107735633850098, 0.4686828851699829], [-1.101536750793457, 2.2941935062408447, 0.25723984837532043, -1.0967403650283813, -0.9778708219528198, 0.7725299000740051, 0.7734515070915222, 0.05478771775960922, 1.1167658567428589, -0.9276298880577087, 0.5288131237030029, -0.6803798079490662, 0.9739847779273987, -1.0159366130828857, 1.0960496664047241, 1.295392632484436, -0.6283259987831116, -0.6939002275466919, -0.5270079374313354, 0.10205486416816711, 0.25040677189826965, -1.296844720840454, 2.917391538619995, -2.0414621829986572, 0.19234676659107208, 0.599831759929657, 1.855611801147461, -0.19700974225997925, 0.07095339894294739, -0.025786880403757095, -0.5841121077537537, -1.944577932357788], [-0.8742218613624573, 0.0626245066523552, -1.2675453424453735, -0.15640226006507874, -1.2799831628799438, 0.7160990238189697, 1.793530821800232, 0.938989520072937, -0.07235926389694214, -1.2072886228561401, 0.05293525010347366, 1.300795316696167, -0.9535405039787292, 0.22007149457931519, 1.1407543420791626, 0.7432746887207031, 0.1797814965248108, 1.4065231084823608, 0.28770774602890015, 0.2529480457305908, 0.09451223164796829, -1.1429182291030884, -0.25132521986961365, 1.068223237991333, -0.4171779155731201, 0.6439148187637329, -0.45172736048698425, 1.2876338958740234, -0.5118565559387207, 0.8324525356292725, 1.9349441528320312, -2.411081552505493], [0.9101123213768005, -0.22596745193004608, -0.010594896972179413, -0.16469284892082214, -0.8400596380233765, 1.6250239610671997, 0.39929431676864624, -0.5371643304824829, -0.7952709197998047, 0.9516164064407349, 0.6026405096054077, 0.024592138826847076, 0.26024189591407776, 0.8116738796234131, 1.2448432445526123, 0.22187034785747528, 0.8640974760055542, 1.0191878080368042, -0.8742892146110535, 0.6558706760406494, -1.9101452827453613, -0.47087621688842773, 2.0932304859161377, -0.9298827052116394, -0.11815928667783737, 1.017487645149231, -0.01774926297366619, -0.17505870759487152, 0.9974401593208313, 0.7666712403297424, -1.3973406553268433, -1.2804183959960938], [-0.8376580476760864, 1.7996994256973267, -0.21888664364814758, 0.7390475869178772, -0.49481672048568726, -0.25548747181892395, 2.075772762298584, 1.8797022104263306, 1.5243723392486572, 1.8055058717727661, -1.516332745552063, 0.6323915123939514, -1.3352140188217163, 1.181899905204773, 1.8259738683700562, 0.1784641295671463, -1.1294224262237549, -0.3003547787666321, 1.521756649017334, -1.5112117528915405, -1.2721680402755737, 1.4616144895553589, 0.9808840155601501, 0.32508206367492676, 1.9856716394424438, 0.8392526507377625, 2.410433769226074, 1.7162930965423584, -0.36922258138656616, -0.1314150094985962, -1.3688651323318481, 1.0824382305145264], [0.7269208431243896, -0.21176102757453918, 0.4102224111557007, 0.6434409618377686, -0.09676647931337357, -0.46717071533203125, -1.7391802072525024, 0.2054431140422821, 2.2270495891571045, -1.0798672437667847, -0.2692957818508148, -1.5789347887039185, -0.9454907774925232, 0.006676753517240286, -0.6354140043258667, -0.2691788375377655, 1.7397980690002441, 1.1179008483886719, 1.4000765085220337, 0.8929811120033264, -0.5377216935157776, 1.3115248680114746, 0.32107728719711304, 0.784489631652832, 0.7067359089851379, -0.3482985198497772, -1.5055060386657715, 2.455141305923462, 0.4311906099319458, 0.3814036250114441, -0.21691769361495972, 0.791274905204773], [-0.9118041396141052, 0.50834721326828, -0.7459255456924438, 1.1868098974227905, -0.2457469403743744, 0.49151167273521423, 0.12962022423744202, -0.31588464975357056, 0.3956129252910614, 1.9677437543869019, 1.113759160041809, 0.7216033935546875, 1.5143219232559204, -0.9977445602416992, 1.1323692798614502, -0.975912868976593, -0.4372716248035431, 1.5887870788574219, 0.24222344160079956, 0.4845244884490967, 0.31791049242019653, -0.08867136389017105, -0.29815584421157837, 1.322072148323059, 0.9476225972175598, 0.13115918636322021, -0.5879763960838318, -0.5951670408248901, 0.1784159243106842, 1.8095136880874634, 0.3730459213256836, 0.16312606632709503], [-1.1501728296279907, 0.3293305039405823, -1.1870163679122925, 1.7161935567855835, 0.05656988173723221, 0.032289352267980576, 1.9575483798980713, -1.7302039861679077, 0.41336187720298767, 1.0756165981292725, 0.9945612549781799, -0.8972373604774475, -0.6269484758377075, -0.1793922334909439, 0.002282401779666543, -0.23109623789787292, -0.003289095824584365, 0.0964229479432106, 1.3001086711883545, 0.49040907621383667, 0.2069057673215866, -2.077444553375244, 0.265730082988739, 0.923888623714447, 0.493358850479126, 0.299144446849823, 0.5401566624641418, -0.15035702288150787, 0.6677263379096985, 0.508872389793396, 1.1784590482711792, -2.203280210494995], [-0.42351144552230835, 0.8220222592353821, -0.3752239942550659, -0.2145746648311615, 0.6146936416625977, -1.5426857471466064, -1.6613296270370483, -0.007633948232978582, 0.36304807662963867, -0.5476461052894592, 0.15220792591571808, -0.20607294142246246, 1.3495454788208008, 0.15234073996543884, -1.9744240045547485, -0.04434685409069061, 0.32356157898902893, 1.4591410160064697, 0.036667078733444214, -0.5970635414123535, 0.17627392709255219, 1.9444468021392822, -0.2305435687303543, -1.2035953998565674, 0.8251492977142334, 2.013712167739868, 0.7506381273269653, -1.742189645767212, 0.49644237756729126, 1.7726812362670898, 0.13961006700992584, 0.07058566808700562], [-0.5636208057403564, 0.3406340777873993, -1.584566593170166, -1.6438052654266357, -2.223475933074951, -1.998568058013916, -0.600485622882843, -0.8499053716659546, -1.2743343114852905, -0.5546863675117493, 0.4425851106643677, -0.2932136356830597, 1.433010458946228, 0.3880968689918518, -1.1779805421829224, 0.9029688239097595, -0.32268065214157104, 0.5511112213134766, -0.6843947768211365, 0.16497935354709625, 2.195518732070923, -0.6130197644233704, 2.197495222091675, 0.6728696227073669, 1.1254501342773438, 0.5883294939994812, -0.24575462937355042, 0.4955770671367645, -1.2771434783935547, 1.2998075485229492, 0.9396751523017883, -0.9563889503479004], [1.6378093957901, -0.6245465278625488, -0.3064129054546356, 0.39721256494522095, 1.02460777759552, -0.12123581767082214, 2.630767583847046, -0.14394059777259827, -0.30850014090538025, 0.820609986782074, -0.21143336594104767, 0.8877409100532532, -1.8417208194732666, -1.414858102798462, -1.4783618450164795, 1.4316482543945312, 0.5680818557739258, 0.07934016734361649, 0.07613053917884827, 0.06125451624393463, -0.7095884680747986, -0.3827165365219116, -0.4338439702987671, -0.8890593647956848, -1.1996921300888062, 0.08819186687469482, -0.19817635416984558, -1.1733478307724, -0.498258501291275, -0.9636659026145935, 1.6712507009506226, -0.13765451312065125], [-1.3713257312774658, -0.4373581111431122, -0.23313812911510468, -1.9477266073226929, 1.3340755701065063, 0.5308282375335693, 0.030767513439059258, -0.6952294111251831, -0.9573908448219299, -0.18038882315158844, -0.4635830819606781, 0.1394476741552353, 1.4358124732971191, 0.5580657124519348, 1.4806523323059082, -0.37468984723091125, 0.5715701580047607, -1.050715446472168, -0.7946313619613647, -0.5971755385398865, -1.68818199634552, 0.3595505356788635, 0.7955570220947266, -0.48057469725608826, 1.4597915410995483, 1.5260472297668457, 1.6346279382705688, 1.6717925071716309, -1.2869551181793213, 0.6076626181602478, 0.19422456622123718, -1.259192943572998], [1.2318403720855713, 0.9915098547935486, 1.4134082794189453, 1.3429968357086182, -1.7984583377838135, 0.29146072268486023, -2.088083028793335, -1.1496738195419312, 0.005350465886294842, 0.8195023536682129, -3.1182808876037598, -0.9951971769332886, -0.06473411619663239, 1.7296371459960938, 1.090957522392273, -0.9355610609054565, -1.5700278282165527, 1.5739800930023193, -2.3237991333007812, 0.014232072979211807, 0.06385432928800583, -0.3378197252750397, 0.5526077151298523, 1.6510604619979858, -1.1240462064743042, -1.3164952993392944, 0.8911994099617004, 1.1460036039352417, -1.5187008380889893, -0.43065738677978516, 0.6977785229682922, 0.09138578921556473], [1.657268762588501, -1.4675371646881104, 1.3768178224563599, 0.2893475294113159, -0.11874133348464966, -1.7054729461669922, 0.5561625361442566, -1.4081847667694092, 1.5808154344558716, 1.4455307722091675, -0.844144880771637, 0.1331779658794403, -0.24763573706150055, 0.5003933310508728, -1.0510879755020142, -0.27180877327919006, 1.0139498710632324, -0.22617405652999878, 0.04601772129535675, -1.9608402252197266, 0.7558135390281677, -0.6251974701881409, -0.9895124435424805, 0.7440872192382812, -0.27599015831947327, -0.13358522951602936, 1.0145829916000366, -1.1408066749572754, -1.3400859832763672, -0.46299538016319275, 0.3319070041179657, -0.17540058493614197], [-1.4112954139709473, -0.16987507045269012, -0.583378255367279, 0.5076996088027954, -1.903398036956787, 1.2563432455062866, -0.3706217110157013, -0.31778910756111145, -0.6139330267906189, -2.8285694122314453, -1.15365731716156, -0.21018020808696747, -0.8412275314331055, -0.3366829454898834, -0.6270002126693726, 0.19064383208751678, 0.06847283989191055, 0.03508249297738075, 1.0887126922607422, 0.9910625219345093, -1.101787805557251, 0.5467678308486938, 1.4761656522750854, 0.0020325686782598495, 0.10650298744440079, -1.0283763408660889, 0.5263218283653259, 0.610103964805603, -0.8791171908378601, 2.011589527130127, -0.34186968207359314, -0.01235447358340025], [0.761504590511322, -0.1163252592086792, 0.47117769718170166, -1.5623981952667236, 1.6302911043167114, -0.8230801820755005, -1.46640944480896, -0.19664417207241058, 1.3520848751068115, -1.8954828977584839, 0.42978015542030334, -0.36724480986595154, 0.5233470797538757, -0.44165506958961487, -1.6679167747497559, -1.6325201988220215, 1.1717405319213867, -0.32991692423820496, 1.7644606828689575, 0.4124446511268616, 1.8865729570388794, -0.7730998992919922, 0.5157027244567871, -0.9699452519416809, 0.022867795079946518, 0.12955278158187866, -0.961219072341919, -0.23124371469020844, 0.0789831131696701, -0.63681560754776, -0.17165912687778473, 0.7372191548347473], [-0.5500698089599609, 0.3754686713218689, 1.2199041843414307, -1.2027171850204468, -0.1518222689628601, -0.5085285902023315, -0.6489484310150146, 1.74689781665802, 0.1579689085483551, -0.6143951416015625, 1.6374011039733887, -0.6036480069160461, 0.9120640754699707, 1.6099876165390015, -0.06415984034538269, 0.29917919635772705, -0.09313525259494781, 0.19220037758350372, -0.061140190809965134, -1.306997299194336, 0.32058531045913696, 0.46938011050224304, -0.8564286231994629, 0.42170584201812744, 0.24005064368247986, 1.0911437273025513, 0.2928333580493927, -0.05700543895363808, -1.361291766166687, -1.5462092161178589, 0.40782421827316284, -0.5081549286842346], [-0.13354596495628357, 0.04579578712582588, 1.7127879858016968, 0.4501282274723053, 1.841629981994629, -0.5600489974021912, -0.7524512410163879, -1.2793856859207153, -0.2856959402561188, -0.29095205664634705, 0.6104508638381958, -0.6525484919548035, -0.13492220640182495, 1.1517199277877808, -1.1870728731155396, 0.3863118588924408, 1.0553808212280273, -0.872065544128418, -2.2047293186187744, 0.14822964370250702, -0.2350136637687683, 0.666159451007843, 0.10945640504360199, 1.8795182704925537, -1.2238092422485352, 0.21121007204055786, 0.1652584969997406, -0.1270497739315033, 0.3423520624637604, 1.3485469818115234, 0.26538562774658203, 2.0671017169952393], [-0.6892927289009094, 1.219152808189392, 0.4390209913253784, 0.14974401891231537, -0.4004986882209778, -0.20098581910133362, 0.2198847383260727, -0.1794022172689438, -0.8659175038337708, -0.19842246174812317, -0.3319742679595947, -1.191794514656067, -0.24048493802547455, -2.6164588928222656, 2.811215877532959, -0.6082057356834412, 0.37983784079551697, -0.3905715048313141, -0.4031517505645752, -0.13077101111412048, -0.7253257036209106, -0.8176622986793518, -0.6171513795852661, 0.3384072780609131, -0.7494529485702515, 1.001989483833313, 0.021453645080327988, 0.8018484711647034, -1.6207572221755981, 1.2599354982376099, -0.9371111392974854, -0.8484250903129578], [1.1450542211532593, -0.1340264230966568, 1.510964274406433, 0.8865947127342224, -0.8071114420890808, 0.0850503072142601, 0.4580099284648895, -0.2808874845504761, 0.7099611163139343, 0.6089194416999817, 1.0032355785369873, 1.2807412147521973, -0.19316048920154572, -2.23222017288208, -0.7621102333068848, 1.687821865081787, 1.4507205486297607, 0.09775073826313019, 0.7975894212722778, -0.47796139121055603, -1.4905645847320557, -2.1436634063720703, -0.06789038330316544, 1.0962260961532593, 1.8250749111175537, -0.19885136187076569, -0.02743454836308956, -0.7542443871498108, -1.4374171495437622, -0.34800633788108826, -0.7714494466781616, 1.7570581436157227], [0.6113322377204895, 0.22517091035842896, 1.714464545249939, 0.6958608627319336, 1.3268530368804932, -0.6530030369758606, -0.5626212954521179, -1.9023027420043945, -0.5993110537528992, 0.3548619747161865, 1.6481808423995972, 0.3990651071071625, 0.32843971252441406, -1.1673763990402222, -2.684627056121826, -0.7198290228843689, -0.18557380139827728, 0.58547443151474, 0.16517013311386108, 0.6844283938407898, 0.6139758229255676, 0.774543285369873, 0.6658515930175781, -1.321388602256775, 0.7353888154029846, -0.007676113396883011, -0.21429258584976196, -0.9753686189651489, -0.6791722178459167, 0.9956987500190735, 0.11884014308452606, 0.3649091124534607], [-0.2402787059545517, -0.6768296360969543, -1.6538794040679932, -0.9653088450431824, 0.9189837574958801, -0.10813453048467636, 0.44331082701683044, -0.8056467175483704, -0.6490215063095093, -0.4968593120574951, -0.06415833532810211, -0.17930381000041962, 0.1404629945755005, -0.3475594222545624, -0.15047761797904968, 0.8391188383102417, -0.1291906237602234, 1.1588413715362549, 0.7047157883644104, -0.8849264979362488, -0.3362693190574646, 0.044066332280635834, -0.02697104401886463, 0.34359660744667053, 0.7830455303192139, -1.1216316223144531, 0.5566326379776001, 0.6820535659790039, 0.08399657160043716, 0.6180407404899597, 0.7304479479789734, 0.7274394035339355], [0.31446194648742676, -1.2099742889404297, -0.3288203179836273, -0.9619789123535156, 0.07645654678344727, 0.9866399765014648, -0.8449059128761292, -1.0800018310546875, 0.923359751701355, 0.11626110225915909, -0.997802197933197, -0.3822561502456665, 0.7957184314727783, -0.7473993301391602, -1.8243175745010376, 0.8686673641204834, 0.07952453196048737, 0.06330902874469757, 0.09951941668987274, -0.08942119032144547, 0.6095467805862427, 1.5863579511642456, -0.7752830386161804, -0.28032350540161133, 0.5304989814758301, -0.395281583070755, 0.3683057129383087, -0.036880385130643845, -0.5078607797622681, -1.296151876449585, -1.3183090686798096, -0.5822178721427917], [-0.6766448616981506, -0.6328142881393433, -0.04206110164523125, 0.7564564943313599, 0.3629339933395386, -2.907351016998291, 0.21059775352478027, -0.5062361359596252, -0.8437042832374573, -1.7745389938354492, -1.1772552728652954, 0.9588873982429504, -0.8132606148719788, 0.264864981174469, 0.19328176975250244, -1.590643286705017, -0.4226931929588318, 0.8689225316047668, -0.7176967859268188, 0.9530132412910461, 0.3467618525028229, 0.04862922057509422, 1.0509743690490723, 1.4296088218688965, 0.9842177033424377, 0.6597076058387756, -1.0139509439468384, 1.7273503541946411, 0.2857648730278015, 1.5779320001602173, -0.336096853017807, -0.595029890537262], [0.8223042488098145, -0.038694847375154495, -0.17889849841594696, -1.315921664237976, 0.655142605304718, 0.875281572341919, -0.6816749572753906, -0.6434947848320007, -0.3499765396118164, 0.2030191868543625, 0.1988919973373413, -1.6165379285812378, -0.6377464532852173, 0.8033920526504517, -0.694044291973114, 0.7793797850608826, -1.349064588546753, -1.536914587020874, -0.3664495348930359, -0.07530193775892258, -0.32878342270851135, 0.4861867427825928, 0.7587984204292297, 1.9732531309127808, 1.4499233961105347, -0.7009084820747375, 1.7338632345199585, 2.2732231616973877, 0.7615857720375061, -2.041551113128662, 0.3678602874279022, -0.40580490231513977], [0.980556845664978, -0.17629657685756683, -0.08651556074619293, 1.317199945449829, -1.15989351272583, 0.3224561810493469, -0.1765443980693817, 0.4726869463920593, -0.8201735615730286, 0.605725109577179, -2.1706278324127197, -0.6845849752426147, -0.34468764066696167, 1.6435471773147583, 1.3041845560073853, 0.08565666526556015, -0.5604517459869385, 0.6469619274139404, -0.2934153079986572, -1.5398973226547241, 0.9328046441078186, 1.4403810501098633, -0.6430748105049133, -0.4180055558681488, 0.7992123365402222, 1.2798035144805908, -0.6073131561279297, -1.2570608854293823, 1.4935522079467773, -0.3657539486885071, -0.4071197807788849, 0.1792481392621994], [-0.5127735137939453, -1.477328896522522, -1.8290026187896729, 0.41827547550201416, 1.7464410066604614, -2.3192265033721924, 2.5362465381622314, -0.12861734628677368, -0.6656491756439209, 0.3413914144039154, -1.2295442819595337, 0.8395965695381165, 0.32093483209609985, -3.1470119953155518, 0.2088240087032318, -0.5324543714523315, 0.29250267148017883, -2.905381202697754, 0.1461680382490158, 0.8161842823028564, -1.0484371185302734, -0.5921241044998169, 1.8692840337753296, 0.041227951645851135, 0.2518467903137207, 1.3071279525756836, 0.29520055651664734, 2.1581413745880127, -0.3991260230541229, -0.054468244314193726, 0.6860411167144775, 1.4646673202514648], [0.5453686118125916, 0.4836643636226654, -1.2230380773544312, 0.31761032342910767, 0.6253898739814758, -0.048359956592321396, -1.0343760251998901, -0.14641502499580383, 0.5235622525215149, 2.3207926750183105, -0.5907593369483948, 1.207737684249878, 0.04026728868484497, -0.2273128777742386, -0.04144391417503357, 0.03819642961025238, -0.010888745076954365, 1.5720189809799194, -0.7329370975494385, 0.8840929865837097, -1.5971450805664062, -0.8864914774894714, 1.3398770093917847, -0.5481302738189697, -0.3184337913990021, 2.0158350467681885, -0.09187951683998108, 0.5226588845252991, 0.6472557187080383, -0.4359774589538574, 0.9261781573295593, -1.849364161491394], [-0.8058876395225525, -0.43560561537742615, 1.1548808813095093, 0.504011869430542, -2.786552667617798, 1.1533689498901367, 2.3637917041778564, 0.7630480527877808, -0.478787899017334, -2.6835334300994873, 0.570020318031311, 0.33668431639671326, -0.8895434141159058, -0.25623759627342224, 0.14756838977336884, -0.6621943712234497, 0.15716736018657684, -1.8322982788085938, 0.1990753561258316, -2.1682493686676025, -2.241457462310791, -0.3498864769935608, 2.216733694076538, -0.5446725487709045, -0.2959609925746918, 0.4486878216266632, -1.2280454635620117, 1.1208966970443726, -1.3675576448440552, -0.4068261682987213, 0.8375522494316101, -0.9380455017089844], [-0.1933472603559494, 0.403877854347229, -0.677799642086029, 1.649232029914856, 0.19561126828193665, 0.9135993123054504, 0.1669417768716812, -0.385253369808197, -0.17257378995418549, -0.07360061258077621, -0.4727647602558136, -0.1568869799375534, 1.2811983823776245, 0.014512876980006695, -1.0836291313171387, -1.1168347597122192, 1.2387641668319702, 0.5940134525299072, -0.04614350199699402, 0.547251284122467, 0.318869024515152, 0.7043910026550293, 1.0789967775344849, 1.7760659456253052, 3.037215232849121, -0.2232464849948883, 0.9212670922279358, 0.6991046071052551, -0.7570661902427673, -2.7519431114196777, -0.21307924389839172, 1.1227869987487793], [1.1477259397506714, 1.475240707397461, 0.6940540671348572, 1.591923713684082, -1.8121637105941772, 0.6939190626144409, -0.08284320682287216, -2.128495693206787, -1.9512194395065308, -0.6548922061920166, 0.8678809404373169, 1.5047035217285156, 0.8113654255867004, 0.9481726884841919, -0.20799526572227478, 0.2639959752559662, -0.6751286387443542, -0.3084235191345215, 1.387392282485962, -1.2996186017990112, -1.855418086051941, -0.47596850991249084, -1.1991729736328125, -0.34344375133514404, -1.4716447591781616, 0.8578358888626099, -0.19543762505054474, 1.7546356916427612, 0.47729000449180603, -0.6032956838607788, -0.2506183683872223, -0.6755581498146057], [-0.29352399706840515, -0.2750546634197235, 0.15232478082180023, -0.34663546085357666, -0.45040082931518555, -0.25968265533447266, 1.1209659576416016, -0.8874379992485046, 1.1473454236984253, 1.2220996618270874, 0.7040761709213257, 0.2541641294956207, 1.1566240787506104, 0.5422633290290833, -0.24350810050964355, -0.13586759567260742, 0.5583945512771606, -0.8366104960441589, -0.338347852230072, 0.25035911798477173, 0.3647223711013794, -0.12718714773654938, 0.5615981221199036, -0.03398289158940315, -0.977351725101471, -1.1937577724456787, -1.3223580121994019, -0.8452004790306091, -1.0018161535263062, 1.7581230401992798, -0.15261156857013702, -0.49130216240882874], [-1.6726783514022827, -0.030159732326865196, 0.2572341561317444, 0.5365505814552307, -0.3683750629425049, -0.41643044352531433, 0.17741051316261292, 2.044640064239502, -0.5362871289253235, -0.48483356833457947, 1.2093689441680908, 0.7314631938934326, -1.6061869859695435, 1.101894736289978, -1.0562580823898315, -0.3358883857727051, -0.8179659247398376, 2.3401222229003906, -0.3764003813266754, 0.23227667808532715, 0.639735758304596, 0.4695604145526886, 0.7686448097229004, 0.2447483390569687, -2.0932600498199463, 0.8597475290298462, -0.6654127240180969, 0.1690557450056076, -1.3792704343795776, -0.8125137686729431, 0.0629313662648201, 0.1975095272064209], [-0.4124429225921631, -1.895163655281067, 0.6284061670303345, -0.17703363299369812, -0.38102418184280396, 0.257328599691391, -0.8047104477882385, -1.6952195167541504, 0.8933103084564209, 0.6920962929725647, 0.9174326658248901, 0.2480807900428772, 1.870573878288269, 0.36169442534446716, 0.6813094615936279, 0.2501707673072815, -0.652662456035614, 1.607692003250122, -0.50771164894104, 1.4160751104354858, 0.7827240824699402, 1.4804072380065918, 0.9153491854667664, -0.685463011264801, -1.1177902221679688, 0.6037648916244507, -1.2609426975250244, 0.479031503200531, 0.5709024667739868, -1.1736786365509033, 1.1326225996017456, -0.9865992069244385], [0.22751395404338837, -0.0010866464581340551, 0.03689529746770859, 0.13180887699127197, -1.0691639184951782, -0.9572939276695251, 0.5434891581535339, -1.8061610460281372, 0.41083136200904846, 0.6561602354049683, 1.870585560798645, -0.7950373888015747, 0.09583847969770432, -0.7049704790115356, -0.4928766191005707, 0.47055307030677795, 0.013774481602013111, 0.2513432204723358, -0.7445663213729858, -1.6794044971466064, -0.5154235363006592, -2.9241392612457275, -0.8588187098503113, 0.11992919445037842, 0.416211873292923, -2.120908260345459, -0.15921716392040253, 0.38800764083862305, 1.182546615600586, 2.1923041343688965, 1.8458186388015747, -0.0769948661327362], [-0.7451981902122498, -1.3294520378112793, -0.7884881496429443, 0.6533223986625671, -0.8590702414512634, -2.0132086277008057, -0.848719596862793, -0.3270760476589203, 0.6694228649139404, 0.4282808005809784, -1.8189904689788818, 0.731369137763977, 1.5018529891967773, 0.541175127029419, 0.6289255023002625, 0.6289877891540527, -0.5096269845962524, 0.27086663246154785, 1.2770954370498657, 1.4376994371414185, 1.0817375183105469, -1.185833215713501, 1.45969557762146, -0.37615761160850525, 1.6357667446136475, -0.11967570334672928, 1.9713994264602661, 0.27726826071739197, 0.31168031692504883, -1.363427758216858, 1.166322946548462, 0.8631283044815063], [0.10645915567874908, -1.9362318515777588, 0.024616748094558716, -1.806689977645874, -0.38131359219551086, 0.9965832233428955, -0.3068139851093292, -0.7141902446746826, -1.1708800792694092, 0.5498825907707214, 0.20255763828754425, 0.13868480920791626, -0.024740437045693398, 0.7455726265907288, 1.2057682275772095, 0.6839717030525208, -0.43720048666000366, 1.140690565109253, 0.13902021944522858, 1.8227990865707397, -0.9676469564437866, -0.23725545406341553, 0.1213066428899765, -0.540946364402771, -0.1826545149087906, 1.2948590517044067, 2.3531100749969482, -1.6242563724517822, -0.3989246189594269, -1.3168143033981323, 1.1509077548980713, 0.19667601585388184], [0.10987480729818344, -0.7847438454627991, 0.3865329325199127, -1.0802268981933594, -0.8640660643577576, 0.34538376331329346, 0.15349213778972626, 0.06495609134435654, 1.0799710750579834, -0.5278265476226807, -2.1106925010681152, 0.5702152252197266, 0.18389108777046204, -0.9073627591133118, -0.916452944278717, 1.3966084718704224, 0.08497274667024612, -1.6222190856933594, 0.5269282460212708, -1.0664446353912354, 1.3928024768829346, -0.03569304943084717, -0.3742360770702362, -1.3395544290542603, -2.056241035461426, 0.6957134008407593, -0.8109225630760193, -0.1948261857032776, 2.2298805713653564, 0.1232263520359993, -0.7879026532173157, 1.2123140096664429], [0.5788074731826782, -1.1682692766189575, -0.6212719082832336, 0.34978416562080383, -1.5165510177612305, -0.43964332342147827, 0.186623215675354, 1.6689729690551758, 0.1854681670665741, 0.7654516100883484, 2.5274734497070312, -0.6583876609802246, -0.6679083108901978, 0.08859474956989288, -0.4275631308555603, -1.8642330169677734, -1.222313642501831, -0.22070814669132233, -1.7316253185272217, -0.12159986793994904, 1.0980050563812256, -0.5806868672370911, 0.3129788339138031, 0.00012964985216967762, -0.38384702801704407, -0.6741721034049988, 0.4847050607204437, 0.4549154043197632, -1.232903003692627, -0.46941617131233215, -0.15078411996364594, -0.5626190304756165], [-1.0156605243682861, 1.53971266746521, -1.1038001775741577, -0.35855862498283386, -0.6021426916122437, -0.8425823450088501, 0.12524500489234924, 0.004728897474706173, 1.1347688436508179, 1.585525393486023, -0.6663767695426941, 0.5956010222434998, 1.0480462312698364, 0.6276556849479675, -0.40911146998405457, -0.6650217771530151, -0.0137096606194973, 0.13928137719631195, -0.27069342136383057, 1.1255686283111572, -0.8069098591804504, 1.081709861755371, 0.43517011404037476, -1.5526156425476074, -0.07224259525537491, -1.9710602760314941, 0.9219024181365967, 1.040260910987854, 1.0644136667251587, -2.113722562789917, -0.7509719729423523, -0.9205203056335449], [-0.932968020439148, -1.5162652730941772, 0.49784159660339355, 0.46400994062423706, -1.5131921768188477, 1.0137988328933716, 0.34188222885131836, -0.5117897391319275, 0.9905251860618591, 2.5533642768859863, 0.02768135815858841, 0.17130042612552643, 1.1966032981872559, -0.5560227036476135, 0.3505384027957916, 0.4294142723083496, -0.5841138958930969, -0.10378067195415497, 0.9826297760009766, -0.45349782705307007, -0.907472550868988, 0.5993567109107971, -0.3565068542957306, -0.43924665451049805, 0.2171083241701126, 0.20397025346755981, 0.35714635252952576, 0.26012030243873596, -0.9865831136703491, 0.4771909713745117, 0.789084792137146, -0.4064163267612457], [2.0671913623809814, 0.30840471386909485, -2.0720198154449463, -0.17415381968021393, 0.5736053586006165, -1.2063084840774536, 0.3994878828525543, -0.5761438608169556, 1.0170496702194214, 2.1369049549102783, -0.22944223880767822, 0.8994864225387573, 0.3638108968734741, -0.6437757015228271, 0.418657511472702, 1.0409975051879883, -0.8883982300758362, -2.1877975463867188, 0.3448655605316162, -0.00034179739304818213, -0.02656138688325882, 0.2849101722240448, 0.9462564587593079, -1.0649895668029785, 1.0953905582427979, -0.22090326249599457, -1.1426899433135986, -0.394070029258728, -0.22433753311634064, -0.7569107413291931, 0.34715721011161804, 0.37270817160606384], [1.1555083990097046, -0.40717506408691406, -1.0836055278778076, -0.5117007493972778, 0.22404369711875916, -0.8054132461547852, 0.7409451603889465, -1.3689526319503784, 1.7430200576782227, -0.4546572268009186, -2.8229963779449463, -0.4277872145175934, 0.30993369221687317, -0.5953364968299866, 0.7705138325691223, 0.20491716265678406, 0.481959730386734, -0.7194084525108337, -0.5184301137924194, 0.5327728390693665, 0.04780477285385132, -0.7535412907600403, 1.459007740020752, 0.400282084941864, -0.8098984360694885, 0.1888672411441803, 1.379852533340454, -0.8476305603981018, -1.352051019668579, -0.02329425700008869, 1.368730068206787, 1.2894845008850098], [0.10200918465852737, 1.798557162284851, 0.2633100152015686, -0.9770219326019287, -0.8277057409286499, -0.33802419900894165, 0.03199649602174759, 0.8207642436027527, 0.5033255219459534, -1.7235695123672485, 0.1822557896375656, -0.8117255568504333, -0.48926523327827454, 0.4053512513637543, -0.6892324686050415, 0.15363988280296326, 1.8628087043762207, 0.15599964559078217, 0.74287348985672, -1.3229743242263794, 0.05893724784255028, -1.0824344158172607, -1.4919302463531494, 0.6765168905258179, 1.2511600255966187, 1.865636944770813, 0.9985110759735107, 0.42868033051490784, -1.5317360162734985, 0.6931926608085632, 1.4361475706100464, 1.157361388206482], [-0.7258227467536926, -1.7312151193618774, 1.027302622795105, 1.9066091775894165, -2.7519593238830566, 2.256638288497925, -0.43086060881614685, -0.9657319784164429, -1.083506464958191, -0.2561247646808624, -1.0014069080352783, -3.305471420288086, -1.3663074970245361, -0.23387044668197632, 0.39952680468559265, -0.1235438734292984, 1.2049009799957275, -0.806320071220398, 1.4184401035308838, 0.5069019794464111, 0.050257112830877304, -1.0414372682571411, -0.9748319983482361, 0.18381579220294952, -0.19370757043361664, -1.7044506072998047, -1.870992660522461, -0.06300744414329529, 0.8777649998664856, -1.1945078372955322, -1.3172156810760498, 0.8767470121383667], [-0.9406407475471497, -1.4199124574661255, 1.2549337148666382, -1.1227766275405884, 0.40575429797172546, -0.6184276342391968, -0.09236356616020203, 0.4351101517677307, 2.2208175659179688, 0.7695659399032593, -0.09821522980928421, -0.5570158362388611, -1.6548103094100952, 1.9761842489242554, -0.9209743738174438, -1.8403085470199585, 2.1277732849121094, 1.0062854290008545, 1.3458330631256104, 0.8409412503242493, -0.40651360154151917, 0.8501655459403992, -0.01812022179365158, -1.2371630668640137, 1.3962129354476929, -0.5924591422080994, -0.5703689455986023, -0.8593949675559998, -0.33396580815315247, 0.6402749419212341, 0.22867155075073242, -1.635327935218811], [-0.4073517322540283, 0.8579527139663696, 0.14673933386802673, -1.8219887018203735, 0.624316930770874, -0.6703466176986694, -1.3415393829345703, -1.718980312347412, -0.028690814971923828, -0.1658860594034195, 0.25288596749305725, -0.23606596887111664, -0.7665436267852783, 0.09243330359458923, -0.3857864439487457, 0.8772404193878174, 0.9326750636100769, -0.07748310267925262, -0.41296979784965515, -0.35460516810417175, 0.7034415602684021, 1.077005386352539, 0.09899937361478806, -1.5526963472366333, -1.5276460647583008, -0.44209474325180054, 0.4694218635559082, -0.954885721206665, -0.19518737494945526, 0.16708485782146454, -0.7676422595977783, -0.3916074335575104], [-0.45753052830696106, -0.0590730756521225, 1.2809866666793823, 2.155723810195923, 0.0944744348526001, 0.10316997766494751, 1.4501564502716064, -1.1467698812484741, 0.6388028264045715, 0.4018969237804413, -0.61199951171875, -0.32118695974349976, -0.354551762342453, 1.0651646852493286, 0.9210318326950073, -1.6829378604888916, 0.9364123344421387, 0.33375439047813416, 0.8975566625595093, 0.29376131296157837, -0.7798592448234558, 1.4358916282653809, 0.5533456802368164, 0.4208008050918579, -0.4777892529964447, -0.44056257605552673, 0.2794284522533417, 0.033565063029527664, -0.29557886719703674, 0.11791827529668808, 0.15933604538440704, 0.6795762777328491], [-0.49036458134651184, -0.17990553379058838, 1.6883047819137573, -0.06695559620857239, -0.4273777902126312, -0.6707323789596558, -0.1817345917224884, 0.35467439889907837, -0.657019317150116, -0.9700829386711121, -0.06671888381242752, -1.1183632612228394, 0.6135028004646301, 1.3325351476669312, 2.8060762882232666, 0.22142325341701508, -1.5750458240509033, 0.3031277060508728, -0.9459181427955627, -0.47613492608070374, -0.968101978302002, -0.4476458728313446, 1.555262565612793, -0.855429470539093, -0.49242889881134033, 1.024886965751648, 0.2873212993144989, 1.9589221477508545, -1.4083150625228882, -1.0990381240844727, 0.19107742607593536, 1.2267929315567017], [0.16892418265342712, 0.2984992265701294, -0.7457966208457947, -0.7501083612442017, 0.6381459832191467, -0.5707253813743591, -1.1567596197128296, -0.05279375985264778, 0.3932451903820038, 0.9874680638313293, 0.5331190228462219, -0.39507099986076355, -0.29708266258239746, 0.4816286563873291, 1.6684283018112183, 1.0868602991104126, 1.1303354501724243, -0.05229806900024414, -0.5824976563453674, -0.09573204070329666, -1.5013896226882935, -0.8153189420700073, -0.48446598649024963, -0.24221575260162354, -0.6070423126220703, -2.02203106880188, 1.165520191192627, -0.5637426376342773, -0.31411513686180115, 0.20767764747142792, -2.2211475372314453, 1.2241452932357788], [-0.8134607672691345, 0.731108546257019, 0.44507595896720886, -1.2882130146026611, 0.8826621770858765, 0.34344151616096497, -0.07465559989213943, 0.23702533543109894, 0.38686439394950867, -2.212317705154419, 1.9910907745361328, 0.45911186933517456, 0.059927962720394135, -0.48303699493408203, 0.5580694079399109, -0.3882567882537842, -0.8974109888076782, 1.6647294759750366, 0.8875851631164551, 0.8744090795516968, -0.12537254393100739, -0.6932235956192017, -0.2361518293619156, -2.0254175662994385, -1.1089401245117188, -0.5563614368438721, 0.8911527991294861, 0.9321329593658447, 1.2952347993850708, 1.86663019657135, 1.21725332736969, 0.15083791315555573], [-0.7149932980537415, -0.5532484650611877, 1.9067203998565674, 0.586246907711029, 0.7888036370277405, -0.9263834357261658, -0.6441338658332825, -1.4772342443466187, 0.22746378183364868, 0.7914602160453796, -0.3675679862499237, 1.2175410985946655, 0.25185540318489075, 0.7184584140777588, 1.2944105863571167, 1.468042254447937, 0.06605048477649689, -0.9039658904075623, 0.12721623480319977, -0.142325758934021, -1.0256272554397583, 0.3798118233680725, -1.0420236587524414, -2.3377158641815186, -0.5122983455657959, -1.2953532934188843, 1.0476545095443726, -2.5593419075012207, -0.067226842045784, -1.483119010925293, 0.7656676173210144, 0.7804743051528931], [0.06512832641601562, 0.035996440798044205, -1.7300471067428589, 0.6813344955444336, -0.0842636376619339, -0.20639601349830627, -0.1600004881620407, -0.42015743255615234, 2.1584794521331787, 0.3700140118598938, -1.5706719160079956, 1.051784634590149, 0.2654125690460205, 0.35442501306533813, 0.24874041974544525, -0.8627736568450928, 1.3040837049484253, -0.041549015790224075, 0.790343701839447, -0.8860343098640442, 0.881249189376831, 1.4843084812164307, 1.7506027221679688, -0.9487347602844238, -0.47453102469444275, -0.3598220646381378, 1.2659083604812622, -0.8719301819801331, 0.2932400107383728, 1.154400110244751, -0.5293297171592712, -1.4171764850616455], [-0.44247546792030334, 